digraph Tree {
node [shape=box, style="filled, rounded", color="black", fontname=helvetica] ;
edge [fontname=helvetica] ;
0 [label="oldbalanceOrg <= 1240703.062\ngini = 0.006\nsamples = 2216324\nvalue = [2209755, 6569]\nclass = y[0]", fillcolor="#e5813a"] ;
1 [label="newbalanceDest <= 0.695\ngini = 0.004\nsamples = 2212709\nvalue = [2208054, 4655]\nclass = y[0]", fillcolor="#e58139"] ;
0 -> 1 [labeldistance=2.5, labelangle=45, headlabel="True"] ;
2 [label="type <= 0.5\ngini = 0.306\nsamples = 12296\nvalue = [9982, 2314]\nclass = y[0]", fillcolor="#eb9e67"] ;
1 -> 2 ;
3 [label="oldbalanceDest <= 44.5\ngini = 0.401\nsamples = 3175\nvalue = [882, 2293]\nclass = y[1]", fillcolor="#85c3ef"] ;
2 -> 3 ;
4 [label="step <= 20.5\ngini = 0.072\nsamples = 2382\nvalue = [89, 2293]\nclass = y[1]", fillcolor="#41a1e6"] ;
3 -> 4 ;
5 [label="step <= 6.5\ngini = 0.5\nsamples = 112\nvalue = [55, 57]\nclass = y[1]", fillcolor="#f8fcfe"] ;
4 -> 5 ;
6 [label="gini = 0.0\nsamples = 20\nvalue = [0, 20]\nclass = y[1]", fillcolor="#399de5"] ;
5 -> 6 ;
7 [label="oldbalanceOrg <= 121218.41\ngini = 0.481\nsamples = 92\nvalue = [55, 37]\nclass = y[0]", fillcolor="#f6d6be"] ;
5 -> 7 ;
8 [label="amount <= 71366.451\ngini = 0.398\nsamples = 62\nvalue = [45, 17]\nclass = y[0]", fillcolor="#efb184"] ;
7 -> 8 ;
9 [label="newbalanceOrig <= 5790.79\ngini = 0.469\nsamples = 24\nvalue = [9, 15]\nclass = y[1]", fillcolor="#b0d8f5"] ;
8 -> 9 ;
10 [label="amount <= 13232.49\ngini = 0.408\nsamples = 21\nvalue = [6, 15]\nclass = y[1]", fillcolor="#88c4ef"] ;
9 -> 10 ;
11 [label="gini = 0.0\nsamples = 8\nvalue = [0, 8]\nclass = y[1]", fillcolor="#399de5"] ;
10 -> 11 ;
12 [label="oldbalanceOrg <= 48038.545\ngini = 0.497\nsamples = 13\nvalue = [6, 7]\nclass = y[1]", fillcolor="#e3f1fb"] ;
10 -> 12 ;
13 [label="nameDest <= 406236.5\ngini = 0.444\nsamples = 9\nvalue = [6, 3]\nclass = y[0]", fillcolor="#f2c09c"] ;
12 -> 13 ;
14 [label="gini = 0.0\nsamples = 6\nvalue = [6, 0]\nclass = y[0]", fillcolor="#e58139"] ;
13 -> 14 ;
15 [label="gini = 0.0\nsamples = 3\nvalue = [0, 3]\nclass = y[1]", fillcolor="#399de5"] ;
13 -> 15 ;
16 [label="gini = 0.0\nsamples = 4\nvalue = [0, 4]\nclass = y[1]", fillcolor="#399de5"] ;
12 -> 16 ;
17 [label="gini = 0.0\nsamples = 3\nvalue = [3, 0]\nclass = y[0]", fillcolor="#e58139"] ;
9 -> 17 ;
18 [label="oldbalanceOrg <= 87118.621\ngini = 0.1\nsamples = 38\nvalue = [36, 2]\nclass = y[0]", fillcolor="#e68844"] ;
8 -> 18 ;
19 [label="gini = 0.0\nsamples = 33\nvalue = [33, 0]\nclass = y[0]", fillcolor="#e58139"] ;
18 -> 19 ;
20 [label="oldbalanceOrg <= 98977.379\ngini = 0.48\nsamples = 5\nvalue = [3, 2]\nclass = y[0]", fillcolor="#f6d5bd"] ;
18 -> 20 ;
21 [label="gini = 0.0\nsamples = 2\nvalue = [0, 2]\nclass = y[1]", fillcolor="#399de5"] ;
20 -> 21 ;
22 [label="gini = 0.0\nsamples = 3\nvalue = [3, 0]\nclass = y[0]", fillcolor="#e58139"] ;
20 -> 22 ;
23 [label="nameDest <= 302701.0\ngini = 0.444\nsamples = 30\nvalue = [10, 20]\nclass = y[1]", fillcolor="#9ccef2"] ;
7 -> 23 ;
24 [label="newbalanceOrig <= 56691.559\ngini = 0.48\nsamples = 15\nvalue = [9, 6]\nclass = y[0]", fillcolor="#f6d5bd"] ;
23 -> 24 ;
25 [label="amount <= 534715.0\ngini = 0.496\nsamples = 11\nvalue = [5, 6]\nclass = y[1]", fillcolor="#deeffb"] ;
24 -> 25 ;
26 [label="nameOrig <= 358538.0\ngini = 0.278\nsamples = 6\nvalue = [1, 5]\nclass = y[1]", fillcolor="#61b1ea"] ;
25 -> 26 ;
27 [label="gini = 0.0\nsamples = 1\nvalue = [1, 0]\nclass = y[0]", fillcolor="#e58139"] ;
26 -> 27 ;
28 [label="gini = 0.0\nsamples = 5\nvalue = [0, 5]\nclass = y[1]", fillcolor="#399de5"] ;
26 -> 28 ;
29 [label="oldbalanceOrg <= 892708.094\ngini = 0.32\nsamples = 5\nvalue = [4, 1]\nclass = y[0]", fillcolor="#eca06a"] ;
25 -> 29 ;
30 [label="gini = 0.0\nsamples = 4\nvalue = [4, 0]\nclass = y[0]", fillcolor="#e58139"] ;
29 -> 30 ;
31 [label="gini = 0.0\nsamples = 1\nvalue = [0, 1]\nclass = y[1]", fillcolor="#399de5"] ;
29 -> 31 ;
32 [label="gini = 0.0\nsamples = 4\nvalue = [4, 0]\nclass = y[0]", fillcolor="#e58139"] ;
24 -> 32 ;
33 [label="nameDest <= 463292.5\ngini = 0.124\nsamples = 15\nvalue = [1, 14]\nclass = y[1]", fillcolor="#47a4e7"] ;
23 -> 33 ;
34 [label="gini = 0.0\nsamples = 11\nvalue = [0, 11]\nclass = y[1]", fillcolor="#399de5"] ;
33 -> 34 ;
35 [label="nameOrig <= 834551.5\ngini = 0.375\nsamples = 4\nvalue = [1, 3]\nclass = y[1]", fillcolor="#7bbeee"] ;
33 -> 35 ;
36 [label="gini = 0.0\nsamples = 1\nvalue = [1, 0]\nclass = y[0]", fillcolor="#e58139"] ;
35 -> 36 ;
37 [label="gini = 0.0\nsamples = 3\nvalue = [0, 3]\nclass = y[1]", fillcolor="#399de5"] ;
35 -> 37 ;
38 [label="oldbalanceOrg <= 31534.825\ngini = 0.03\nsamples = 2270\nvalue = [34, 2236]\nclass = y[1]", fillcolor="#3c9ee5"] ;
4 -> 38 ;
39 [label="amount <= 33103.971\ngini = 0.176\nsamples = 266\nvalue = [26, 240]\nclass = y[1]", fillcolor="#4ea8e8"] ;
38 -> 39 ;
40 [label="newbalanceOrig <= 149.23\ngini = 0.024\nsamples = 243\nvalue = [3, 240]\nclass = y[1]", fillcolor="#3b9ee5"] ;
39 -> 40 ;
41 [label="nameOrig <= 2645328.0\ngini = 0.008\nsamples = 241\nvalue = [1, 240]\nclass = y[1]", fillcolor="#3a9de5"] ;
40 -> 41 ;
42 [label="gini = 0.0\nsamples = 226\nvalue = [0, 226]\nclass = y[1]", fillcolor="#399de5"] ;
41 -> 42 ;
43 [label="nameOrig <= 2652111.5\ngini = 0.124\nsamples = 15\nvalue = [1, 14]\nclass = y[1]", fillcolor="#47a4e7"] ;
41 -> 43 ;
44 [label="gini = 0.0\nsamples = 1\nvalue = [1, 0]\nclass = y[0]", fillcolor="#e58139"] ;
43 -> 44 ;
45 [label="gini = 0.0\nsamples = 14\nvalue = [0, 14]\nclass = y[1]", fillcolor="#399de5"] ;
43 -> 45 ;
46 [label="gini = 0.0\nsamples = 2\nvalue = [2, 0]\nclass = y[0]", fillcolor="#e58139"] ;
40 -> 46 ;
47 [label="gini = 0.0\nsamples = 23\nvalue = [23, 0]\nclass = y[0]", fillcolor="#e58139"] ;
39 -> 47 ;
48 [label="newbalanceOrig <= 375087.047\ngini = 0.008\nsamples = 2004\nvalue = [8, 1996]\nclass = y[1]", fillcolor="#3a9de5"] ;
38 -> 48 ;
49 [label="nameOrig <= 2764771.0\ngini = 0.007\nsamples = 2002\nvalue = [7, 1995]\nclass = y[1]", fillcolor="#3a9de5"] ;
48 -> 49 ;
50 [label="step <= 41.5\ngini = 0.006\nsamples = 1999\nvalue = [6, 1993]\nclass = y[1]", fillcolor="#3a9de5"] ;
49 -> 50 ;
51 [label="step <= 38.5\ngini = 0.083\nsamples = 69\nvalue = [3, 66]\nclass = y[1]", fillcolor="#42a1e6"] ;
50 -> 51 ;
52 [label="nameDest <= 112740.0\ngini = 0.033\nsamples = 60\nvalue = [1, 59]\nclass = y[1]", fillcolor="#3c9fe5"] ;
51 -> 52 ;
53 [label="nameDest <= 94196.5\ngini = 0.219\nsamples = 8\nvalue = [1, 7]\nclass = y[1]", fillcolor="#55abe9"] ;
52 -> 53 ;
54 [label="gini = 0.0\nsamples = 7\nvalue = [0, 7]\nclass = y[1]", fillcolor="#399de5"] ;
53 -> 54 ;
55 [label="gini = 0.0\nsamples = 1\nvalue = [1, 0]\nclass = y[0]", fillcolor="#e58139"] ;
53 -> 55 ;
56 [label="gini = 0.0\nsamples = 52\nvalue = [0, 52]\nclass = y[1]", fillcolor="#399de5"] ;
52 -> 56 ;
57 [label="nameOrig <= 108020.5\ngini = 0.346\nsamples = 9\nvalue = [2, 7]\nclass = y[1]", fillcolor="#72b9ec"] ;
51 -> 57 ;
58 [label="gini = 0.0\nsamples = 1\nvalue = [1, 0]\nclass = y[0]", fillcolor="#e58139"] ;
57 -> 58 ;
59 [label="step <= 39.5\ngini = 0.219\nsamples = 8\nvalue = [1, 7]\nclass = y[1]", fillcolor="#55abe9"] ;
57 -> 59 ;
60 [label="nameOrig <= 467667.0\ngini = 0.444\nsamples = 3\nvalue = [1, 2]\nclass = y[1]", fillcolor="#9ccef2"] ;
59 -> 60 ;
61 [label="gini = 0.0\nsamples = 2\nvalue = [0, 2]\nclass = y[1]", fillcolor="#399de5"] ;
60 -> 61 ;
62 [label="gini = 0.0\nsamples = 1\nvalue = [1, 0]\nclass = y[0]", fillcolor="#e58139"] ;
60 -> 62 ;
63 [label="gini = 0.0\nsamples = 5\nvalue = [0, 5]\nclass = y[1]", fillcolor="#399de5"] ;
59 -> 63 ;
64 [label="oldbalanceOrg <= 59891.205\ngini = 0.003\nsamples = 1930\nvalue = [3, 1927]\nclass = y[1]", fillcolor="#399de5"] ;
50 -> 64 ;
65 [label="amount <= 79228.096\ngini = 0.022\nsamples = 182\nvalue = [2, 180]\nclass = y[1]", fillcolor="#3b9ee5"] ;
64 -> 65 ;
66 [label="gini = 0.0\nsamples = 180\nvalue = [0, 180]\nclass = y[1]", fillcolor="#399de5"] ;
65 -> 66 ;
67 [label="gini = 0.0\nsamples = 2\nvalue = [2, 0]\nclass = y[0]", fillcolor="#e58139"] ;
65 -> 67 ;
68 [label="nameDest <= 470277.0\ngini = 0.001\nsamples = 1748\nvalue = [1, 1747]\nclass = y[1]", fillcolor="#399de5"] ;
64 -> 68 ;
69 [label="gini = 0.0\nsamples = 1611\nvalue = [0, 1611]\nclass = y[1]", fillcolor="#399de5"] ;
68 -> 69 ;
70 [label="nameDest <= 470433.5\ngini = 0.014\nsamples = 137\nvalue = [1, 136]\nclass = y[1]", fillcolor="#3a9ee5"] ;
68 -> 70 ;
71 [label="gini = 0.0\nsamples = 1\nvalue = [1, 0]\nclass = y[0]", fillcolor="#e58139"] ;
70 -> 71 ;
72 [label="gini = 0.0\nsamples = 136\nvalue = [0, 136]\nclass = y[1]", fillcolor="#399de5"] ;
70 -> 72 ;
73 [label="amount <= 361231.469\ngini = 0.444\nsamples = 3\nvalue = [1, 2]\nclass = y[1]", fillcolor="#9ccef2"] ;
49 -> 73 ;
74 [label="gini = 0.0\nsamples = 1\nvalue = [1, 0]\nclass = y[0]", fillcolor="#e58139"] ;
73 -> 74 ;
75 [label="gini = 0.0\nsamples = 2\nvalue = [0, 2]\nclass = y[1]", fillcolor="#399de5"] ;
73 -> 75 ;
76 [label="nameDest <= 206673.0\ngini = 0.5\nsamples = 2\nvalue = [1, 1]\nclass = y[0]", fillcolor="#ffffff"] ;
48 -> 76 ;
77 [label="gini = 0.0\nsamples = 1\nvalue = [0, 1]\nclass = y[1]", fillcolor="#399de5"] ;
76 -> 77 ;
78 [label="gini = 0.0\nsamples = 1\nvalue = [1, 0]\nclass = y[0]", fillcolor="#e58139"] ;
76 -> 78 ;
79 [label="gini = 0.0\nsamples = 793\nvalue = [793, 0]\nclass = y[0]", fillcolor="#e58139"] ;
3 -> 79 ;
80 [label="amount <= 0.395\ngini = 0.005\nsamples = 9121\nvalue = [9100, 21]\nclass = y[0]", fillcolor="#e58139"] ;
2 -> 80 ;
81 [label="gini = 0.0\nsamples = 6\nvalue = [0, 6]\nclass = y[1]", fillcolor="#399de5"] ;
80 -> 81 ;
82 [label="step <= 6.5\ngini = 0.003\nsamples = 9115\nvalue = [9100, 15]\nclass = y[0]", fillcolor="#e58139"] ;
80 -> 82 ;
83 [label="oldbalanceDest <= 31317.0\ngini = 0.145\nsamples = 38\nvalue = [35, 3]\nclass = y[0]", fillcolor="#e78c4a"] ;
82 -> 83 ;
84 [label="oldbalanceOrg <= 1403.0\ngini = 0.49\nsamples = 7\nvalue = [4, 3]\nclass = y[0]", fillcolor="#f8e0ce"] ;
83 -> 84 ;
85 [label="gini = 0.0\nsamples = 3\nvalue = [3, 0]\nclass = y[0]", fillcolor="#e58139"] ;
84 -> 85 ;
86 [label="nameOrig <= 1556073.5\ngini = 0.375\nsamples = 4\nvalue = [1, 3]\nclass = y[1]", fillcolor="#7bbeee"] ;
84 -> 86 ;
87 [label="gini = 0.0\nsamples = 1\nvalue = [1, 0]\nclass = y[0]", fillcolor="#e58139"] ;
86 -> 87 ;
88 [label="gini = 0.0\nsamples = 3\nvalue = [0, 3]\nclass = y[1]", fillcolor="#399de5"] ;
86 -> 88 ;
89 [label="gini = 0.0\nsamples = 31\nvalue = [31, 0]\nclass = y[0]", fillcolor="#e58139"] ;
83 -> 89 ;
90 [label="amount <= 175.41\ngini = 0.003\nsamples = 9077\nvalue = [9065, 12]\nclass = y[0]", fillcolor="#e58139"] ;
82 -> 90 ;
91 [label="step <= 8.0\ngini = 0.153\nsamples = 12\nvalue = [11, 1]\nclass = y[0]", fillcolor="#e78c4b"] ;
90 -> 91 ;
92 [label="gini = 0.0\nsamples = 1\nvalue = [0, 1]\nclass = y[1]", fillcolor="#399de5"] ;
91 -> 92 ;
93 [label="gini = 0.0\nsamples = 11\nvalue = [11, 0]\nclass = y[0]", fillcolor="#e58139"] ;
91 -> 93 ;
94 [label="step <= 8.5\ngini = 0.002\nsamples = 9065\nvalue = [9054, 11]\nclass = y[0]", fillcolor="#e58139"] ;
90 -> 94 ;
95 [label="oldbalanceOrg <= 21691.5\ngini = 0.015\nsamples = 408\nvalue = [405, 3]\nclass = y[0]", fillcolor="#e5823a"] ;
94 -> 95 ;
96 [label="gini = 0.0\nsamples = 284\nvalue = [284, 0]\nclass = y[0]", fillcolor="#e58139"] ;
95 -> 96 ;
97 [label="oldbalanceOrg <= 21916.5\ngini = 0.047\nsamples = 124\nvalue = [121, 3]\nclass = y[0]", fillcolor="#e6843e"] ;
95 -> 97 ;
98 [label="gini = 0.0\nsamples = 1\nvalue = [0, 1]\nclass = y[1]", fillcolor="#399de5"] ;
97 -> 98 ;
99 [label="oldbalanceOrg <= 29794.43\ngini = 0.032\nsamples = 123\nvalue = [121, 2]\nclass = y[0]", fillcolor="#e5833c"] ;
97 -> 99 ;
100 [label="oldbalanceOrg <= 29702.495\ngini = 0.198\nsamples = 9\nvalue = [8, 1]\nclass = y[0]", fillcolor="#e89152"] ;
99 -> 100 ;
101 [label="gini = 0.0\nsamples = 8\nvalue = [8, 0]\nclass = y[0]", fillcolor="#e58139"] ;
100 -> 101 ;
102 [label="gini = 0.0\nsamples = 1\nvalue = [0, 1]\nclass = y[1]", fillcolor="#399de5"] ;
100 -> 102 ;
103 [label="oldbalanceDest <= 21218.45\ngini = 0.017\nsamples = 114\nvalue = [113, 1]\nclass = y[0]", fillcolor="#e5823b"] ;
99 -> 103 ;
104 [label="oldbalanceDest <= 21002.5\ngini = 0.04\nsamples = 49\nvalue = [48, 1]\nclass = y[0]", fillcolor="#e6843d"] ;
103 -> 104 ;
105 [label="gini = 0.0\nsamples = 48\nvalue = [48, 0]\nclass = y[0]", fillcolor="#e58139"] ;
104 -> 105 ;
106 [label="gini = 0.0\nsamples = 1\nvalue = [0, 1]\nclass = y[1]", fillcolor="#399de5"] ;
104 -> 106 ;
107 [label="gini = 0.0\nsamples = 65\nvalue = [65, 0]\nclass = y[0]", fillcolor="#e58139"] ;
103 -> 107 ;
108 [label="amount <= 1055.69\ngini = 0.002\nsamples = 8657\nvalue = [8649, 8]\nclass = y[0]", fillcolor="#e58139"] ;
94 -> 108 ;
109 [label="amount <= 1049.83\ngini = 0.029\nsamples = 68\nvalue = [67, 1]\nclass = y[0]", fillcolor="#e5833c"] ;
108 -> 109 ;
110 [label="gini = 0.0\nsamples = 67\nvalue = [67, 0]\nclass = y[0]", fillcolor="#e58139"] ;
109 -> 110 ;
111 [label="gini = 0.0\nsamples = 1\nvalue = [0, 1]\nclass = y[1]", fillcolor="#399de5"] ;
109 -> 111 ;
112 [label="oldbalanceOrg <= 131070.867\ngini = 0.002\nsamples = 8589\nvalue = [8582, 7]\nclass = y[0]", fillcolor="#e58139"] ;
108 -> 112 ;
113 [label="oldbalanceDest <= 11992.5\ngini = 0.001\nsamples = 7575\nvalue = [7572, 3]\nclass = y[0]", fillcolor="#e58139"] ;
112 -> 113 ;
114 [label="oldbalanceDest <= 11980.5\ngini = 0.002\nsamples = 2560\nvalue = [2557, 3]\nclass = y[0]", fillcolor="#e58139"] ;
113 -> 114 ;
115 [label="step <= 348.5\ngini = 0.002\nsamples = 2559\nvalue = [2557, 2]\nclass = y[0]", fillcolor="#e58139"] ;
114 -> 115 ;
116 [label="oldbalanceOrg <= 82716.102\ngini = 0.001\nsamples = 2403\nvalue = [2402, 1]\nclass = y[0]", fillcolor="#e58139"] ;
115 -> 116 ;
117 [label="gini = 0.0\nsamples = 2171\nvalue = [2171, 0]\nclass = y[0]", fillcolor="#e58139"] ;
116 -> 117 ;
118 [label="oldbalanceOrg <= 82827.602\ngini = 0.009\nsamples = 232\nvalue = [231, 1]\nclass = y[0]", fillcolor="#e5823a"] ;
116 -> 118 ;
119 [label="gini = 0.0\nsamples = 1\nvalue = [0, 1]\nclass = y[1]", fillcolor="#399de5"] ;
118 -> 119 ;
120 [label="gini = 0.0\nsamples = 231\nvalue = [231, 0]\nclass = y[0]", fillcolor="#e58139"] ;
118 -> 120 ;
121 [label="step <= 349.5\ngini = 0.013\nsamples = 156\nvalue = [155, 1]\nclass = y[0]", fillcolor="#e5823a"] ;
115 -> 121 ;
122 [label="amount <= 24871.281\ngini = 0.18\nsamples = 10\nvalue = [9, 1]\nclass = y[0]", fillcolor="#e88f4f"] ;
121 -> 122 ;
123 [label="gini = 0.0\nsamples = 1\nvalue = [0, 1]\nclass = y[1]", fillcolor="#399de5"] ;
122 -> 123 ;
124 [label="gini = 0.0\nsamples = 9\nvalue = [9, 0]\nclass = y[0]", fillcolor="#e58139"] ;
122 -> 124 ;
125 [label="gini = 0.0\nsamples = 146\nvalue = [146, 0]\nclass = y[0]", fillcolor="#e58139"] ;
121 -> 125 ;
126 [label="gini = 0.0\nsamples = 1\nvalue = [0, 1]\nclass = y[1]", fillcolor="#399de5"] ;
114 -> 126 ;
127 [label="gini = 0.0\nsamples = 5015\nvalue = [5015, 0]\nclass = y[0]", fillcolor="#e58139"] ;
113 -> 127 ;
128 [label="oldbalanceOrg <= 131615.867\ngini = 0.008\nsamples = 1014\nvalue = [1010, 4]\nclass = y[0]", fillcolor="#e5813a"] ;
112 -> 128 ;
129 [label="gini = 0.0\nsamples = 1\nvalue = [0, 1]\nclass = y[1]", fillcolor="#399de5"] ;
128 -> 129 ;
130 [label="amount <= 449472.391\ngini = 0.006\nsamples = 1013\nvalue = [1010, 3]\nclass = y[0]", fillcolor="#e5813a"] ;
128 -> 130 ;
131 [label="newbalanceOrig <= 28.875\ngini = 0.004\nsamples = 995\nvalue = [993, 2]\nclass = y[0]", fillcolor="#e58139"] ;
130 -> 131 ;
132 [label="amount <= 146494.609\ngini = 0.027\nsamples = 145\nvalue = [143, 2]\nclass = y[0]", fillcolor="#e5833c"] ;
131 -> 132 ;
133 [label="gini = 0.0\nsamples = 1\nvalue = [0, 1]\nclass = y[1]", fillcolor="#399de5"] ;
132 -> 133 ;
134 [label="amount <= 173143.453\ngini = 0.014\nsamples = 144\nvalue = [143, 1]\nclass = y[0]", fillcolor="#e5823a"] ;
132 -> 134 ;
135 [label="oldbalanceOrg <= 166686.906\ngini = 0.087\nsamples = 22\nvalue = [21, 1]\nclass = y[0]", fillcolor="#e68742"] ;
134 -> 135 ;
136 [label="gini = 0.0\nsamples = 21\nvalue = [21, 0]\nclass = y[0]", fillcolor="#e58139"] ;
135 -> 136 ;
137 [label="gini = 0.0\nsamples = 1\nvalue = [0, 1]\nclass = y[1]", fillcolor="#399de5"] ;
135 -> 137 ;
138 [label="gini = 0.0\nsamples = 122\nvalue = [122, 0]\nclass = y[0]", fillcolor="#e58139"] ;
134 -> 138 ;
139 [label="gini = 0.0\nsamples = 850\nvalue = [850, 0]\nclass = y[0]", fillcolor="#e58139"] ;
131 -> 139 ;
140 [label="amount <= 454039.125\ngini = 0.105\nsamples = 18\nvalue = [17, 1]\nclass = y[0]", fillcolor="#e78845"] ;
130 -> 140 ;
141 [label="gini = 0.0\nsamples = 1\nvalue = [0, 1]\nclass = y[1]", fillcolor="#399de5"] ;
140 -> 141 ;
142 [label="gini = 0.0\nsamples = 17\nvalue = [17, 0]\nclass = y[0]", fillcolor="#e58139"] ;
140 -> 142 ;
143 [label="step <= 718.5\ngini = 0.002\nsamples = 2200413\nvalue = [2198072, 2341]\nclass = y[0]", fillcolor="#e58139"] ;
1 -> 143 ;
144 [label="oldbalanceOrg <= 1010777.281\ngini = 0.002\nsamples = 2200327\nvalue = [2198072, 2255]\nclass = y[0]", fillcolor="#e58139"] ;
143 -> 144 ;
145 [label="oldbalanceOrg <= 325241.75\ngini = 0.002\nsamples = 2199385\nvalue = [2197245, 2140]\nclass = y[0]", fillcolor="#e58139"] ;
144 -> 145 ;
146 [label="amount <= 0.005\ngini = 0.001\nsamples = 2136518\nvalue = [2135166, 1352]\nclass = y[0]", fillcolor="#e58139"] ;
145 -> 146 ;
147 [label="gini = 0.0\nsamples = 6\nvalue = [0, 6]\nclass = y[1]", fillcolor="#399de5"] ;
146 -> 147 ;
148 [label="oldbalanceOrg <= 106596.07\ngini = 0.001\nsamples = 2136512\nvalue = [2135166, 1346]\nclass = y[0]", fillcolor="#e58139"] ;
146 -> 148 ;
149 [label="step <= 410.5\ngini = 0.001\nsamples = 1970099\nvalue = [1969417, 682]\nclass = y[0]", fillcolor="#e58139"] ;
148 -> 149 ;
150 [label="step <= 6.5\ngini = 0.0\nsamples = 1862463\nvalue = [1862044, 419]\nclass = y[0]", fillcolor="#e58139"] ;
149 -> 150 ;
151 [label="amount <= 35537.264\ngini = 0.038\nsamples = 985\nvalue = [966, 19]\nclass = y[0]", fillcolor="#e6833d"] ;
150 -> 151 ;
152 [label="oldbalanceDest <= 9756.725\ngini = 0.247\nsamples = 111\nvalue = [95, 16]\nclass = y[0]", fillcolor="#e9965a"] ;
151 -> 152 ;
153 [label="newbalanceOrig <= 147.825\ngini = 0.494\nsamples = 18\nvalue = [8, 10]\nclass = y[1]", fillcolor="#d7ebfa"] ;
152 -> 153 ;
154 [label="oldbalanceOrg <= 5568.735\ngini = 0.278\nsamples = 12\nvalue = [2, 10]\nclass = y[1]", fillcolor="#61b1ea"] ;
153 -> 154 ;
155 [label="gini = 0.0\nsamples = 2\nvalue = [2, 0]\nclass = y[0]", fillcolor="#e58139"] ;
154 -> 155 ;
156 [label="gini = 0.0\nsamples = 10\nvalue = [0, 10]\nclass = y[1]", fillcolor="#399de5"] ;
154 -> 156 ;
157 [label="gini = 0.0\nsamples = 6\nvalue = [6, 0]\nclass = y[0]", fillcolor="#e58139"] ;
153 -> 157 ;
158 [label="nameOrig <= 18476.5\ngini = 0.121\nsamples = 93\nvalue = [87, 6]\nclass = y[0]", fillcolor="#e78a47"] ;
152 -> 158 ;
159 [label="gini = 0.0\nsamples = 1\nvalue = [0, 1]\nclass = y[1]", fillcolor="#399de5"] ;
158 -> 159 ;
160 [label="amount <= 34727.24\ngini = 0.103\nsamples = 92\nvalue = [87, 5]\nclass = y[0]", fillcolor="#e68844"] ;
158 -> 160 ;
161 [label="oldbalanceOrg <= 10497.87\ngini = 0.084\nsamples = 91\nvalue = [87, 4]\nclass = y[0]", fillcolor="#e68742"] ;
160 -> 161 ;
162 [label="gini = 0.0\nsamples = 58\nvalue = [58, 0]\nclass = y[0]", fillcolor="#e58139"] ;
161 -> 162 ;
163 [label="newbalanceOrig <= 392.87\ngini = 0.213\nsamples = 33\nvalue = [29, 4]\nclass = y[0]", fillcolor="#e99254"] ;
161 -> 163 ;
164 [label="oldbalanceDest <= 164818.398\ngini = 0.48\nsamples = 10\nvalue = [6, 4]\nclass = y[0]", fillcolor="#f6d5bd"] ;
163 -> 164 ;
165 [label="nameOrig <= 766825.0\ngini = 0.444\nsamples = 6\nvalue = [2, 4]\nclass = y[1]", fillcolor="#9ccef2"] ;
164 -> 165 ;
166 [label="amount <= 15030.89\ngini = 0.444\nsamples = 3\nvalue = [2, 1]\nclass = y[0]", fillcolor="#f2c09c"] ;
165 -> 166 ;
167 [label="gini = 0.0\nsamples = 1\nvalue = [0, 1]\nclass = y[1]", fillcolor="#399de5"] ;
166 -> 167 ;
168 [label="gini = 0.0\nsamples = 2\nvalue = [2, 0]\nclass = y[0]", fillcolor="#e58139"] ;
166 -> 168 ;
169 [label="gini = 0.0\nsamples = 3\nvalue = [0, 3]\nclass = y[1]", fillcolor="#399de5"] ;
165 -> 169 ;
170 [label="gini = 0.0\nsamples = 4\nvalue = [4, 0]\nclass = y[0]", fillcolor="#e58139"] ;
164 -> 170 ;
171 [label="gini = 0.0\nsamples = 23\nvalue = [23, 0]\nclass = y[0]", fillcolor="#e58139"] ;
163 -> 171 ;
172 [label="gini = 0.0\nsamples = 1\nvalue = [0, 1]\nclass = y[1]", fillcolor="#399de5"] ;
160 -> 172 ;
173 [label="oldbalanceOrg <= 60576.689\ngini = 0.007\nsamples = 874\nvalue = [871, 3]\nclass = y[0]", fillcolor="#e5813a"] ;
151 -> 173 ;
174 [label="oldbalanceDest <= 144.0\ngini = 0.002\nsamples = 837\nvalue = [836, 1]\nclass = y[0]", fillcolor="#e58139"] ;
173 -> 174 ;
175 [label="newbalanceDest <= 5424210.0\ngini = 0.043\nsamples = 45\nvalue = [44, 1]\nclass = y[0]", fillcolor="#e6843d"] ;
174 -> 175 ;
176 [label="gini = 0.0\nsamples = 44\nvalue = [44, 0]\nclass = y[0]", fillcolor="#e58139"] ;
175 -> 176 ;
177 [label="gini = 0.0\nsamples = 1\nvalue = [0, 1]\nclass = y[1]", fillcolor="#399de5"] ;
175 -> 177 ;
178 [label="gini = 0.0\nsamples = 792\nvalue = [792, 0]\nclass = y[0]", fillcolor="#e58139"] ;
174 -> 178 ;
179 [label="oldbalanceOrg <= 60983.785\ngini = 0.102\nsamples = 37\nvalue = [35, 2]\nclass = y[0]", fillcolor="#e68844"] ;
173 -> 179 ;
180 [label="gini = 0.0\nsamples = 1\nvalue = [0, 1]\nclass = y[1]", fillcolor="#399de5"] ;
179 -> 180 ;
181 [label="newbalanceDest <= 30975.0\ngini = 0.054\nsamples = 36\nvalue = [35, 1]\nclass = y[0]", fillcolor="#e6853f"] ;
179 -> 181 ;
182 [label="newbalanceDest <= 9497.92\ngini = 0.444\nsamples = 3\nvalue = [2, 1]\nclass = y[0]", fillcolor="#f2c09c"] ;
181 -> 182 ;
183 [label="gini = 0.0\nsamples = 2\nvalue = [2, 0]\nclass = y[0]", fillcolor="#e58139"] ;
182 -> 183 ;
184 [label="gini = 0.0\nsamples = 1\nvalue = [0, 1]\nclass = y[1]", fillcolor="#399de5"] ;
182 -> 184 ;
185 [label="gini = 0.0\nsamples = 33\nvalue = [33, 0]\nclass = y[0]", fillcolor="#e58139"] ;
181 -> 185 ;
186 [label="newbalanceDest <= 103949.684\ngini = 0.0\nsamples = 1861478\nvalue = [1861078, 400]\nclass = y[0]", fillcolor="#e58139"] ;
150 -> 186 ;
187 [label="newbalanceDest <= 103949.449\ngini = 0.003\nsamples = 115566\nvalue = [115401, 165]\nclass = y[0]", fillcolor="#e58139"] ;
186 -> 187 ;
188 [label="nameOrig <= 121.5\ngini = 0.003\nsamples = 115563\nvalue = [115399, 164]\nclass = y[0]", fillcolor="#e58139"] ;
187 -> 188 ;
189 [label="nameOrig <= 114.0\ngini = 0.198\nsamples = 9\nvalue = [8, 1]\nclass = y[0]", fillcolor="#e89152"] ;
188 -> 189 ;
190 [label="gini = 0.0\nsamples = 8\nvalue = [8, 0]\nclass = y[0]", fillcolor="#e58139"] ;
189 -> 190 ;
191 [label="gini = 0.0\nsamples = 1\nvalue = [0, 1]\nclass = y[1]", fillcolor="#399de5"] ;
189 -> 191 ;
192 [label="oldbalanceOrg <= 36035.055\ngini = 0.003\nsamples = 115554\nvalue = [115391, 163]\nclass = y[0]", fillcolor="#e58139"] ;
188 -> 192 ;
193 [label="newbalanceDest <= 22124.104\ngini = 0.002\nsamples = 87773\nvalue = [87695, 78]\nclass = y[0]", fillcolor="#e58139"] ;
192 -> 193 ;
194 [label="newbalanceDest <= 22122.175\ngini = 0.007\nsamples = 13590\nvalue = [13545, 45]\nclass = y[0]", fillcolor="#e5813a"] ;
193 -> 194 ;
195 [label="newbalanceOrig <= 1.495\ngini = 0.006\nsamples = 13589\nvalue = [13545, 44]\nclass = y[0]", fillcolor="#e5813a"] ;
194 -> 195 ;
196 [label="oldbalanceOrg <= 16176.85\ngini = 0.011\nsamples = 7626\nvalue = [7582, 44]\nclass = y[0]", fillcolor="#e5823a"] ;
195 -> 196 ;
197 [label="newbalanceDest <= 67.86\ngini = 0.007\nsamples = 7185\nvalue = [7158, 27]\nclass = y[0]", fillcolor="#e5813a"] ;
196 -> 197 ;
198 [label="nameDest <= 468047.5\ngini = 0.32\nsamples = 5\nvalue = [4, 1]\nclass = y[0]", fillcolor="#eca06a"] ;
197 -> 198 ;
199 [label="gini = 0.0\nsamples = 4\nvalue = [4, 0]\nclass = y[0]", fillcolor="#e58139"] ;
198 -> 199 ;
200 [label="gini = 0.0\nsamples = 1\nvalue = [0, 1]\nclass = y[1]", fillcolor="#399de5"] ;
198 -> 200 ;
201 [label="newbalanceDest <= 9229.17\ngini = 0.007\nsamples = 7180\nvalue = [7154, 26]\nclass = y[0]", fillcolor="#e5813a"] ;
197 -> 201 ;
202 [label="oldbalanceOrg <= 7291.78\ngini = 0.021\nsamples = 1939\nvalue = [1918, 21]\nclass = y[0]", fillcolor="#e5823b"] ;
201 -> 202 ;
203 [label="oldbalanceOrg <= 1436.19\ngini = 0.011\nsamples = 1835\nvalue = [1825, 10]\nclass = y[0]", fillcolor="#e5823a"] ;
202 -> 203 ;
204 [label="newbalanceDest <= 647.57\ngini = 0.001\nsamples = 1398\nvalue = [1397, 1]\nclass = y[0]", fillcolor="#e58139"] ;
203 -> 204 ;
205 [label="newbalanceDest <= 634.13\ngini = 0.043\nsamples = 45\nvalue = [44, 1]\nclass = y[0]", fillcolor="#e6843d"] ;
204 -> 205 ;
206 [label="gini = 0.0\nsamples = 44\nvalue = [44, 0]\nclass = y[0]", fillcolor="#e58139"] ;
205 -> 206 ;
207 [label="gini = 0.0\nsamples = 1\nvalue = [0, 1]\nclass = y[1]", fillcolor="#399de5"] ;
205 -> 207 ;
208 [label="gini = 0.0\nsamples = 1353\nvalue = [1353, 0]\nclass = y[0]", fillcolor="#e58139"] ;
204 -> 208 ;
209 [label="amount <= 1498.58\ngini = 0.04\nsamples = 437\nvalue = [428, 9]\nclass = y[0]", fillcolor="#e6843d"] ;
203 -> 209 ;
210 [label="gini = 0.0\nsamples = 1\nvalue = [0, 1]\nclass = y[1]", fillcolor="#399de5"] ;
209 -> 210 ;
211 [label="amount <= 2275.61\ngini = 0.036\nsamples = 436\nvalue = [428, 8]\nclass = y[0]", fillcolor="#e5833d"] ;
209 -> 211 ;
212 [label="step <= 170.5\ngini = 0.291\nsamples = 17\nvalue = [14, 3]\nclass = y[0]", fillcolor="#eb9c63"] ;
211 -> 212 ;
213 [label="nameDest <= 314107.0\ngini = 0.375\nsamples = 4\nvalue = [1, 3]\nclass = y[1]", fillcolor="#7bbeee"] ;
212 -> 213 ;
214 [label="gini = 0.0\nsamples = 2\nvalue = [0, 2]\nclass = y[1]", fillcolor="#399de5"] ;
213 -> 214 ;
215 [label="oldbalanceDest <= 1279.87\ngini = 0.5\nsamples = 2\nvalue = [1, 1]\nclass = y[0]", fillcolor="#ffffff"] ;
213 -> 215 ;
216 [label="gini = 0.0\nsamples = 1\nvalue = [1, 0]\nclass = y[0]", fillcolor="#e58139"] ;
215 -> 216 ;
217 [label="gini = 0.0\nsamples = 1\nvalue = [0, 1]\nclass = y[1]", fillcolor="#399de5"] ;
215 -> 217 ;
218 [label="gini = 0.0\nsamples = 13\nvalue = [13, 0]\nclass = y[0]", fillcolor="#e58139"] ;
212 -> 218 ;
219 [label="oldbalanceOrg <= 4107.57\ngini = 0.024\nsamples = 419\nvalue = [414, 5]\nclass = y[0]", fillcolor="#e5833b"] ;
211 -> 219 ;
220 [label="gini = 0.0\nsamples = 243\nvalue = [243, 0]\nclass = y[0]", fillcolor="#e58139"] ;
219 -> 220 ;
221 [label="amount <= 4433.62\ngini = 0.055\nsamples = 176\nvalue = [171, 5]\nclass = y[0]", fillcolor="#e6853f"] ;
219 -> 221 ;
222 [label="gini = 0.0\nsamples = 2\nvalue = [0, 2]\nclass = y[1]", fillcolor="#399de5"] ;
221 -> 222 ;
223 [label="amount <= 5566.57\ngini = 0.034\nsamples = 174\nvalue = [171, 3]\nclass = y[0]", fillcolor="#e5833c"] ;
221 -> 223 ;
224 [label="newbalanceDest <= 5542.91\ngini = 0.278\nsamples = 12\nvalue = [10, 2]\nclass = y[0]", fillcolor="#ea9a61"] ;
223 -> 224 ;
225 [label="nameOrig <= 2412782.0\ngini = 0.165\nsamples = 11\nvalue = [10, 1]\nclass = y[0]", fillcolor="#e88e4d"] ;
224 -> 225 ;
226 [label="gini = 0.0\nsamples = 9\nvalue = [9, 0]\nclass = y[0]", fillcolor="#e58139"] ;
225 -> 226 ;
227 [label="step <= 282.0\ngini = 0.5\nsamples = 2\nvalue = [1, 1]\nclass = y[0]", fillcolor="#ffffff"] ;
225 -> 227 ;
228 [label="gini = 0.0\nsamples = 1\nvalue = [0, 1]\nclass = y[1]", fillcolor="#399de5"] ;
227 -> 228 ;
229 [label="gini = 0.0\nsamples = 1\nvalue = [1, 0]\nclass = y[0]", fillcolor="#e58139"] ;
227 -> 229 ;
230 [label="gini = 0.0\nsamples = 1\nvalue = [0, 1]\nclass = y[1]", fillcolor="#399de5"] ;
224 -> 230 ;
231 [label="step <= 402.0\ngini = 0.012\nsamples = 162\nvalue = [161, 1]\nclass = y[0]", fillcolor="#e5823a"] ;
223 -> 231 ;
232 [label="gini = 0.0\nsamples = 157\nvalue = [157, 0]\nclass = y[0]", fillcolor="#e58139"] ;
231 -> 232 ;
233 [label="step <= 403.5\ngini = 0.32\nsamples = 5\nvalue = [4, 1]\nclass = y[0]", fillcolor="#eca06a"] ;
231 -> 233 ;
234 [label="oldbalanceOrg <= 5732.04\ngini = 0.5\nsamples = 2\nvalue = [1, 1]\nclass = y[0]", fillcolor="#ffffff"] ;
233 -> 234 ;
235 [label="gini = 0.0\nsamples = 1\nvalue = [1, 0]\nclass = y[0]", fillcolor="#e58139"] ;
234 -> 235 ;
236 [label="gini = 0.0\nsamples = 1\nvalue = [0, 1]\nclass = y[1]", fillcolor="#399de5"] ;
234 -> 236 ;
237 [label="gini = 0.0\nsamples = 3\nvalue = [3, 0]\nclass = y[0]", fillcolor="#e58139"] ;
233 -> 237 ;
238 [label="amount <= 8500.445\ngini = 0.189\nsamples = 104\nvalue = [93, 11]\nclass = y[0]", fillcolor="#e89050"] ;
202 -> 238 ;
239 [label="nameOrig <= 2075595.0\ngini = 0.219\nsamples = 8\nvalue = [1, 7]\nclass = y[1]", fillcolor="#55abe9"] ;
238 -> 239 ;
240 [label="gini = 0.0\nsamples = 7\nvalue = [0, 7]\nclass = y[1]", fillcolor="#399de5"] ;
239 -> 240 ;
241 [label="gini = 0.0\nsamples = 1\nvalue = [1, 0]\nclass = y[0]", fillcolor="#e58139"] ;
239 -> 241 ;
242 [label="newbalanceDest <= 9167.03\ngini = 0.08\nsamples = 96\nvalue = [92, 4]\nclass = y[0]", fillcolor="#e68642"] ;
238 -> 242 ;
243 [label="amount <= 8792.99\ngini = 0.022\nsamples = 91\nvalue = [90, 1]\nclass = y[0]", fillcolor="#e5823b"] ;
242 -> 243 ;
244 [label="oldbalanceOrg <= 8554.71\ngini = 0.375\nsamples = 4\nvalue = [3, 1]\nclass = y[0]", fillcolor="#eeab7b"] ;
243 -> 244 ;
245 [label="gini = 0.0\nsamples = 3\nvalue = [3, 0]\nclass = y[0]", fillcolor="#e58139"] ;
244 -> 245 ;
246 [label="gini = 0.0\nsamples = 1\nvalue = [0, 1]\nclass = y[1]", fillcolor="#399de5"] ;
244 -> 246 ;
247 [label="gini = 0.0\nsamples = 87\nvalue = [87, 0]\nclass = y[0]", fillcolor="#e58139"] ;
243 -> 247 ;
248 [label="oldbalanceDest <= 52.0\ngini = 0.48\nsamples = 5\nvalue = [2, 3]\nclass = y[1]", fillcolor="#bddef6"] ;
242 -> 248 ;
249 [label="gini = 0.0\nsamples = 3\nvalue = [0, 3]\nclass = y[1]", fillcolor="#399de5"] ;
248 -> 249 ;
250 [label="gini = 0.0\nsamples = 2\nvalue = [2, 0]\nclass = y[0]", fillcolor="#e58139"] ;
248 -> 250 ;
251 [label="oldbalanceOrg <= 12470.98\ngini = 0.002\nsamples = 5241\nvalue = [5236, 5]\nclass = y[0]", fillcolor="#e58139"] ;
201 -> 251 ;
252 [label="newbalanceDest <= 10360.46\ngini = 0.0\nsamples = 4943\nvalue = [4942, 1]\nclass = y[0]", fillcolor="#e58139"] ;
251 -> 252 ;
253 [label="oldbalanceOrg <= 10344.635\ngini = 0.006\nsamples = 308\nvalue = [307, 1]\nclass = y[0]", fillcolor="#e5813a"] ;
252 -> 253 ;
254 [label="gini = 0.0\nsamples = 306\nvalue = [306, 0]\nclass = y[0]", fillcolor="#e58139"] ;
253 -> 254 ;
255 [label="oldbalanceDest <= 67.5\ngini = 0.5\nsamples = 2\nvalue = [1, 1]\nclass = y[0]", fillcolor="#ffffff"] ;
253 -> 255 ;
256 [label="gini = 0.0\nsamples = 1\nvalue = [0, 1]\nclass = y[1]", fillcolor="#399de5"] ;
255 -> 256 ;
257 [label="gini = 0.0\nsamples = 1\nvalue = [1, 0]\nclass = y[0]", fillcolor="#e58139"] ;
255 -> 257 ;
258 [label="gini = 0.0\nsamples = 4635\nvalue = [4635, 0]\nclass = y[0]", fillcolor="#e58139"] ;
252 -> 258 ;
259 [label="oldbalanceOrg <= 12478.98\ngini = 0.026\nsamples = 298\nvalue = [294, 4]\nclass = y[0]", fillcolor="#e5833c"] ;
251 -> 259 ;
260 [label="gini = 0.0\nsamples = 1\nvalue = [0, 1]\nclass = y[1]", fillcolor="#399de5"] ;
259 -> 260 ;
261 [label="amount <= 14095.07\ngini = 0.02\nsamples = 297\nvalue = [294, 3]\nclass = y[0]", fillcolor="#e5823b"] ;
259 -> 261 ;
262 [label="step <= 104.0\ngini = 0.305\nsamples = 16\nvalue = [13, 3]\nclass = y[0]", fillcolor="#eb9e67"] ;
261 -> 262 ;
263 [label="oldbalanceOrg <= 12839.085\ngini = 0.375\nsamples = 4\nvalue = [1, 3]\nclass = y[1]", fillcolor="#7bbeee"] ;
262 -> 263 ;
264 [label="gini = 0.0\nsamples = 1\nvalue = [1, 0]\nclass = y[0]", fillcolor="#e58139"] ;
263 -> 264 ;
265 [label="gini = 0.0\nsamples = 3\nvalue = [0, 3]\nclass = y[1]", fillcolor="#399de5"] ;
263 -> 265 ;
266 [label="gini = 0.0\nsamples = 12\nvalue = [12, 0]\nclass = y[0]", fillcolor="#e58139"] ;
262 -> 266 ;
267 [label="gini = 0.0\nsamples = 281\nvalue = [281, 0]\nclass = y[0]", fillcolor="#e58139"] ;
261 -> 267 ;
268 [label="amount <= 16356.44\ngini = 0.074\nsamples = 441\nvalue = [424, 17]\nclass = y[0]", fillcolor="#e68641"] ;
196 -> 268 ;
269 [label="gini = 0.0\nsamples = 2\nvalue = [0, 2]\nclass = y[1]", fillcolor="#399de5"] ;
268 -> 269 ;
270 [label="amount <= 21586.364\ngini = 0.066\nsamples = 439\nvalue = [424, 15]\nclass = y[0]", fillcolor="#e68540"] ;
268 -> 270 ;
271 [label="oldbalanceOrg <= 21488.11\ngini = 0.187\nsamples = 134\nvalue = [120, 14]\nclass = y[0]", fillcolor="#e89050"] ;
270 -> 271 ;
272 [label="nameOrig <= 317870.0\ngini = 0.142\nsamples = 130\nvalue = [120, 10]\nclass = y[0]", fillcolor="#e78c49"] ;
271 -> 272 ;
273 [label="nameOrig <= 288526.5\ngini = 0.337\nsamples = 14\nvalue = [11, 3]\nclass = y[0]", fillcolor="#eca36f"] ;
272 -> 273 ;
274 [label="nameOrig <= 190689.0\ngini = 0.165\nsamples = 11\nvalue = [10, 1]\nclass = y[0]", fillcolor="#e88e4d"] ;
273 -> 274 ;
275 [label="gini = 0.0\nsamples = 7\nvalue = [7, 0]\nclass = y[0]", fillcolor="#e58139"] ;
274 -> 275 ;
276 [label="nameOrig <= 234071.0\ngini = 0.375\nsamples = 4\nvalue = [3, 1]\nclass = y[0]", fillcolor="#eeab7b"] ;
274 -> 276 ;
277 [label="gini = 0.0\nsamples = 1\nvalue = [0, 1]\nclass = y[1]", fillcolor="#399de5"] ;
276 -> 277 ;
278 [label="gini = 0.0\nsamples = 3\nvalue = [3, 0]\nclass = y[0]", fillcolor="#e58139"] ;
276 -> 278 ;
279 [label="step <= 286.5\ngini = 0.444\nsamples = 3\nvalue = [1, 2]\nclass = y[1]", fillcolor="#9ccef2"] ;
273 -> 279 ;
280 [label="gini = 0.0\nsamples = 2\nvalue = [0, 2]\nclass = y[1]", fillcolor="#399de5"] ;
279 -> 280 ;
281 [label="gini = 0.0\nsamples = 1\nvalue = [1, 0]\nclass = y[0]", fillcolor="#e58139"] ;
279 -> 281 ;
282 [label="step <= 168.5\ngini = 0.113\nsamples = 116\nvalue = [109, 7]\nclass = y[0]", fillcolor="#e78946"] ;
272 -> 282 ;
283 [label="gini = 0.0\nsamples = 41\nvalue = [41, 0]\nclass = y[0]", fillcolor="#e58139"] ;
282 -> 283 ;
284 [label="step <= 175.5\ngini = 0.169\nsamples = 75\nvalue = [68, 7]\nclass = y[0]", fillcolor="#e88e4d"] ;
282 -> 284 ;
285 [label="gini = 0.0\nsamples = 1\nvalue = [0, 1]\nclass = y[1]", fillcolor="#399de5"] ;
284 -> 285 ;
286 [label="amount <= 16827.005\ngini = 0.149\nsamples = 74\nvalue = [68, 6]\nclass = y[0]", fillcolor="#e78c4a"] ;
284 -> 286 ;
287 [label="gini = 0.0\nsamples = 1\nvalue = [0, 1]\nclass = y[1]", fillcolor="#399de5"] ;
286 -> 287 ;
288 [label="oldbalanceOrg <= 21238.64\ngini = 0.128\nsamples = 73\nvalue = [68, 5]\nclass = y[0]", fillcolor="#e78a48"] ;
286 -> 288 ;
289 [label="step <= 200.0\ngini = 0.106\nsamples = 71\nvalue = [67, 4]\nclass = y[0]", fillcolor="#e78945"] ;
288 -> 289 ;
290 [label="newbalanceDest <= 18556.87\ngini = 0.278\nsamples = 12\nvalue = [10, 2]\nclass = y[0]", fillcolor="#ea9a61"] ;
289 -> 290 ;
291 [label="gini = 0.0\nsamples = 1\nvalue = [0, 1]\nclass = y[1]", fillcolor="#399de5"] ;
290 -> 291 ;
292 [label="oldbalanceOrg <= 20230.0\ngini = 0.165\nsamples = 11\nvalue = [10, 1]\nclass = y[0]", fillcolor="#e88e4d"] ;
290 -> 292 ;
293 [label="gini = 0.0\nsamples = 9\nvalue = [9, 0]\nclass = y[0]", fillcolor="#e58139"] ;
292 -> 293 ;
294 [label="nameOrig <= 1334723.5\ngini = 0.5\nsamples = 2\nvalue = [1, 1]\nclass = y[0]", fillcolor="#ffffff"] ;
292 -> 294 ;
295 [label="gini = 0.0\nsamples = 1\nvalue = [1, 0]\nclass = y[0]", fillcolor="#e58139"] ;
294 -> 295 ;
296 [label="gini = 0.0\nsamples = 1\nvalue = [0, 1]\nclass = y[1]", fillcolor="#399de5"] ;
294 -> 296 ;
297 [label="newbalanceDest <= 17288.7\ngini = 0.065\nsamples = 59\nvalue = [57, 2]\nclass = y[0]", fillcolor="#e68540"] ;
289 -> 297 ;
298 [label="amount <= 17178.38\ngini = 0.32\nsamples = 5\nvalue = [4, 1]\nclass = y[0]", fillcolor="#eca06a"] ;
297 -> 298 ;
299 [label="gini = 0.0\nsamples = 4\nvalue = [4, 0]\nclass = y[0]", fillcolor="#e58139"] ;
298 -> 299 ;
300 [label="gini = 0.0\nsamples = 1\nvalue = [0, 1]\nclass = y[1]", fillcolor="#399de5"] ;
298 -> 300 ;
301 [label="nameDest <= 384942.0\ngini = 0.036\nsamples = 54\nvalue = [53, 1]\nclass = y[0]", fillcolor="#e5833d"] ;
297 -> 301 ;
302 [label="gini = 0.0\nsamples = 42\nvalue = [42, 0]\nclass = y[0]", fillcolor="#e58139"] ;
301 -> 302 ;
303 [label="nameDest <= 391561.5\ngini = 0.153\nsamples = 12\nvalue = [11, 1]\nclass = y[0]", fillcolor="#e78c4b"] ;
301 -> 303 ;
304 [label="gini = 0.0\nsamples = 1\nvalue = [0, 1]\nclass = y[1]", fillcolor="#399de5"] ;
303 -> 304 ;
305 [label="gini = 0.0\nsamples = 11\nvalue = [11, 0]\nclass = y[0]", fillcolor="#e58139"] ;
303 -> 305 ;
306 [label="nameDest <= 176800.0\ngini = 0.5\nsamples = 2\nvalue = [1, 1]\nclass = y[0]", fillcolor="#ffffff"] ;
288 -> 306 ;
307 [label="gini = 0.0\nsamples = 1\nvalue = [0, 1]\nclass = y[1]", fillcolor="#399de5"] ;
306 -> 307 ;
308 [label="gini = 0.0\nsamples = 1\nvalue = [1, 0]\nclass = y[0]", fillcolor="#e58139"] ;
306 -> 308 ;
309 [label="gini = 0.0\nsamples = 4\nvalue = [0, 4]\nclass = y[1]", fillcolor="#399de5"] ;
271 -> 309 ;
310 [label="newbalanceDest <= 21850.035\ngini = 0.007\nsamples = 305\nvalue = [304, 1]\nclass = y[0]", fillcolor="#e5813a"] ;
270 -> 310 ;
311 [label="gini = 0.0\nsamples = 281\nvalue = [281, 0]\nclass = y[0]", fillcolor="#e58139"] ;
310 -> 311 ;
312 [label="amount <= 21860.104\ngini = 0.08\nsamples = 24\nvalue = [23, 1]\nclass = y[0]", fillcolor="#e68642"] ;
310 -> 312 ;
313 [label="gini = 0.0\nsamples = 1\nvalue = [0, 1]\nclass = y[1]", fillcolor="#399de5"] ;
312 -> 313 ;
314 [label="gini = 0.0\nsamples = 23\nvalue = [23, 0]\nclass = y[0]", fillcolor="#e58139"] ;
312 -> 314 ;
315 [label="gini = 0.0\nsamples = 5963\nvalue = [5963, 0]\nclass = y[0]", fillcolor="#e58139"] ;
195 -> 315 ;
316 [label="gini = 0.0\nsamples = 1\nvalue = [0, 1]\nclass = y[1]", fillcolor="#399de5"] ;
194 -> 316 ;
317 [label="amount <= 33303.086\ngini = 0.001\nsamples = 74183\nvalue = [74150, 33]\nclass = y[0]", fillcolor="#e58139"] ;
193 -> 317 ;
318 [label="amount <= 33302.746\ngini = 0.002\nsamples = 25469\nvalue = [25438, 31]\nclass = y[0]", fillcolor="#e58139"] ;
317 -> 318 ;
319 [label="oldbalanceOrg <= 6780.235\ngini = 0.002\nsamples = 25468\nvalue = [25438, 30]\nclass = y[0]", fillcolor="#e58139"] ;
318 -> 319 ;
320 [label="nameDest <= 2526.5\ngini = 0.0\nsamples = 17594\nvalue = [17591, 3]\nclass = y[0]", fillcolor="#e58139"] ;
319 -> 320 ;
321 [label="nameDest <= 2504.5\ngini = 0.024\nsamples = 84\nvalue = [83, 1]\nclass = y[0]", fillcolor="#e5833b"] ;
320 -> 321 ;
322 [label="gini = 0.0\nsamples = 83\nvalue = [83, 0]\nclass = y[0]", fillcolor="#e58139"] ;
321 -> 322 ;
323 [label="gini = 0.0\nsamples = 1\nvalue = [0, 1]\nclass = y[1]", fillcolor="#399de5"] ;
321 -> 323 ;
324 [label="oldbalanceOrg <= 2814.305\ngini = 0.0\nsamples = 17510\nvalue = [17508, 2]\nclass = y[0]", fillcolor="#e58139"] ;
320 -> 324 ;
325 [label="gini = 0.0\nsamples = 16268\nvalue = [16268, 0]\nclass = y[0]", fillcolor="#e58139"] ;
324 -> 325 ;
326 [label="oldbalanceOrg <= 2816.305\ngini = 0.003\nsamples = 1242\nvalue = [1240, 2]\nclass = y[0]", fillcolor="#e58139"] ;
324 -> 326 ;
327 [label="gini = 0.0\nsamples = 1\nvalue = [0, 1]\nclass = y[1]", fillcolor="#399de5"] ;
326 -> 327 ;
328 [label="oldbalanceDest <= 93996.078\ngini = 0.002\nsamples = 1241\nvalue = [1240, 1]\nclass = y[0]", fillcolor="#e58139"] ;
326 -> 328 ;
329 [label="gini = 0.0\nsamples = 1221\nvalue = [1221, 0]\nclass = y[0]", fillcolor="#e58139"] ;
328 -> 329 ;
330 [label="oldbalanceDest <= 94337.176\ngini = 0.095\nsamples = 20\nvalue = [19, 1]\nclass = y[0]", fillcolor="#e68843"] ;
328 -> 330 ;
331 [label="gini = 0.0\nsamples = 1\nvalue = [0, 1]\nclass = y[1]", fillcolor="#399de5"] ;
330 -> 331 ;
332 [label="gini = 0.0\nsamples = 19\nvalue = [19, 0]\nclass = y[0]", fillcolor="#e58139"] ;
330 -> 332 ;
333 [label="oldbalanceOrg <= 6783.735\ngini = 0.007\nsamples = 7874\nvalue = [7847, 27]\nclass = y[0]", fillcolor="#e5813a"] ;
319 -> 333 ;
334 [label="gini = 0.0\nsamples = 1\nvalue = [0, 1]\nclass = y[1]", fillcolor="#399de5"] ;
333 -> 334 ;
335 [label="step <= 7.5\ngini = 0.007\nsamples = 7873\nvalue = [7847, 26]\nclass = y[0]", fillcolor="#e5813a"] ;
333 -> 335 ;
336 [label="oldbalanceOrg <= 21192.0\ngini = 0.219\nsamples = 8\nvalue = [7, 1]\nclass = y[0]", fillcolor="#e99355"] ;
335 -> 336 ;
337 [label="gini = 0.0\nsamples = 6\nvalue = [6, 0]\nclass = y[0]", fillcolor="#e58139"] ;
336 -> 337 ;
338 [label="oldbalanceOrg <= 25260.0\ngini = 0.5\nsamples = 2\nvalue = [1, 1]\nclass = y[0]", fillcolor="#ffffff"] ;
336 -> 338 ;
339 [label="gini = 0.0\nsamples = 1\nvalue = [0, 1]\nclass = y[1]", fillcolor="#399de5"] ;
338 -> 339 ;
340 [label="gini = 0.0\nsamples = 1\nvalue = [1, 0]\nclass = y[0]", fillcolor="#e58139"] ;
338 -> 340 ;
341 [label="newbalanceOrig <= 2.665\ngini = 0.006\nsamples = 7865\nvalue = [7840, 25]\nclass = y[0]", fillcolor="#e5813a"] ;
335 -> 341 ;
342 [label="amount <= 9612.31\ngini = 0.01\nsamples = 4877\nvalue = [4852, 25]\nclass = y[0]", fillcolor="#e5823a"] ;
341 -> 342 ;
343 [label="oldbalanceOrg <= 8405.965\ngini = 0.415\nsamples = 17\nvalue = [12, 5]\nclass = y[0]", fillcolor="#f0b58b"] ;
342 -> 343 ;
344 [label="nameDest <= 371015.5\ngini = 0.142\nsamples = 13\nvalue = [12, 1]\nclass = y[0]", fillcolor="#e78c49"] ;
343 -> 344 ;
345 [label="gini = 0.0\nsamples = 12\nvalue = [12, 0]\nclass = y[0]", fillcolor="#e58139"] ;
344 -> 345 ;
346 [label="gini = 0.0\nsamples = 1\nvalue = [0, 1]\nclass = y[1]", fillcolor="#399de5"] ;
344 -> 346 ;
347 [label="gini = 0.0\nsamples = 4\nvalue = [0, 4]\nclass = y[1]", fillcolor="#399de5"] ;
343 -> 347 ;
348 [label="oldbalanceOrg <= 32854.5\ngini = 0.008\nsamples = 4860\nvalue = [4840, 20]\nclass = y[0]", fillcolor="#e5823a"] ;
342 -> 348 ;
349 [label="oldbalanceOrg <= 28304.485\ngini = 0.008\nsamples = 4859\nvalue = [4840, 19]\nclass = y[0]", fillcolor="#e5813a"] ;
348 -> 349 ;
350 [label="amount <= 21702.256\ngini = 0.005\nsamples = 4700\nvalue = [4688, 12]\nclass = y[0]", fillcolor="#e5813a"] ;
349 -> 350 ;
351 [label="oldbalanceOrg <= 21235.595\ngini = 0.027\nsamples = 656\nvalue = [647, 9]\nclass = y[0]", fillcolor="#e5833c"] ;
350 -> 351 ;
352 [label="oldbalanceOrg <= 21050.725\ngini = 0.021\nsamples = 654\nvalue = [647, 7]\nclass = y[0]", fillcolor="#e5823b"] ;
351 -> 352 ;
353 [label="oldbalanceOrg <= 14324.77\ngini = 0.018\nsamples = 651\nvalue = [645, 6]\nclass = y[0]", fillcolor="#e5823b"] ;
352 -> 353 ;
354 [label="amount <= 11633.55\ngini = 0.004\nsamples = 527\nvalue = [526, 1]\nclass = y[0]", fillcolor="#e58139"] ;
353 -> 354 ;
355 [label="amount <= 11628.99\ngini = 0.043\nsamples = 46\nvalue = [45, 1]\nclass = y[0]", fillcolor="#e6843d"] ;
354 -> 355 ;
356 [label="gini = 0.0\nsamples = 45\nvalue = [45, 0]\nclass = y[0]", fillcolor="#e58139"] ;
355 -> 356 ;
357 [label="gini = 0.0\nsamples = 1\nvalue = [0, 1]\nclass = y[1]", fillcolor="#399de5"] ;
355 -> 357 ;
358 [label="gini = 0.0\nsamples = 481\nvalue = [481, 0]\nclass = y[0]", fillcolor="#e58139"] ;
354 -> 358 ;
359 [label="amount <= 15098.255\ngini = 0.077\nsamples = 124\nvalue = [119, 5]\nclass = y[0]", fillcolor="#e68641"] ;
353 -> 359 ;
360 [label="nameOrig <= 1946515.0\ngini = 0.444\nsamples = 3\nvalue = [1, 2]\nclass = y[1]", fillcolor="#9ccef2"] ;
359 -> 360 ;
361 [label="gini = 0.0\nsamples = 2\nvalue = [0, 2]\nclass = y[1]", fillcolor="#399de5"] ;
360 -> 361 ;
362 [label="gini = 0.0\nsamples = 1\nvalue = [1, 0]\nclass = y[0]", fillcolor="#e58139"] ;
360 -> 362 ;
363 [label="step <= 378.5\ngini = 0.048\nsamples = 121\nvalue = [118, 3]\nclass = y[0]", fillcolor="#e6843e"] ;
359 -> 363 ;
364 [label="amount <= 16293.445\ngini = 0.018\nsamples = 112\nvalue = [111, 1]\nclass = y[0]", fillcolor="#e5823b"] ;
363 -> 364 ;
365 [label="nameDest <= 125822.5\ngini = 0.219\nsamples = 8\nvalue = [7, 1]\nclass = y[0]", fillcolor="#e99355"] ;
364 -> 365 ;
366 [label="gini = 0.0\nsamples = 1\nvalue = [0, 1]\nclass = y[1]", fillcolor="#399de5"] ;
365 -> 366 ;
367 [label="gini = 0.0\nsamples = 7\nvalue = [7, 0]\nclass = y[0]", fillcolor="#e58139"] ;
365 -> 367 ;
368 [label="gini = 0.0\nsamples = 104\nvalue = [104, 0]\nclass = y[0]", fillcolor="#e58139"] ;
364 -> 368 ;
369 [label="oldbalanceDest <= 34094.534\ngini = 0.346\nsamples = 9\nvalue = [7, 2]\nclass = y[0]", fillcolor="#eca572"] ;
363 -> 369 ;
370 [label="nameDest <= 49894.0\ngini = 0.444\nsamples = 3\nvalue = [1, 2]\nclass = y[1]", fillcolor="#9ccef2"] ;
369 -> 370 ;
371 [label="gini = 0.0\nsamples = 1\nvalue = [0, 1]\nclass = y[1]", fillcolor="#399de5"] ;
370 -> 371 ;
372 [label="oldbalanceOrg <= 17983.57\ngini = 0.5\nsamples = 2\nvalue = [1, 1]\nclass = y[0]", fillcolor="#ffffff"] ;
370 -> 372 ;
373 [label="gini = 0.0\nsamples = 1\nvalue = [0, 1]\nclass = y[1]", fillcolor="#399de5"] ;
372 -> 373 ;
374 [label="gini = 0.0\nsamples = 1\nvalue = [1, 0]\nclass = y[0]", fillcolor="#e58139"] ;
372 -> 374 ;
375 [label="gini = 0.0\nsamples = 6\nvalue = [6, 0]\nclass = y[0]", fillcolor="#e58139"] ;
369 -> 375 ;
376 [label="nameDest <= 295276.5\ngini = 0.444\nsamples = 3\nvalue = [2, 1]\nclass = y[0]", fillcolor="#f2c09c"] ;
352 -> 376 ;
377 [label="gini = 0.0\nsamples = 2\nvalue = [2, 0]\nclass = y[0]", fillcolor="#e58139"] ;
376 -> 377 ;
378 [label="gini = 0.0\nsamples = 1\nvalue = [0, 1]\nclass = y[1]", fillcolor="#399de5"] ;
376 -> 378 ;
379 [label="gini = 0.0\nsamples = 2\nvalue = [0, 2]\nclass = y[1]", fillcolor="#399de5"] ;
351 -> 379 ;
380 [label="oldbalanceOrg <= 23024.13\ngini = 0.001\nsamples = 4044\nvalue = [4041, 3]\nclass = y[0]", fillcolor="#e58139"] ;
350 -> 380 ;
381 [label="gini = 0.0\nsamples = 3709\nvalue = [3709, 0]\nclass = y[0]", fillcolor="#e58139"] ;
380 -> 381 ;
382 [label="oldbalanceOrg <= 23037.63\ngini = 0.018\nsamples = 335\nvalue = [332, 3]\nclass = y[0]", fillcolor="#e5823b"] ;
380 -> 382 ;
383 [label="gini = 0.0\nsamples = 1\nvalue = [0, 1]\nclass = y[1]", fillcolor="#399de5"] ;
382 -> 383 ;
384 [label="amount <= 24290.266\ngini = 0.012\nsamples = 334\nvalue = [332, 2]\nclass = y[0]", fillcolor="#e5823a"] ;
382 -> 384 ;
385 [label="amount <= 24169.55\ngini = 0.32\nsamples = 5\nvalue = [4, 1]\nclass = y[0]", fillcolor="#eca06a"] ;
384 -> 385 ;
386 [label="gini = 0.0\nsamples = 4\nvalue = [4, 0]\nclass = y[0]", fillcolor="#e58139"] ;
385 -> 386 ;
387 [label="gini = 0.0\nsamples = 1\nvalue = [0, 1]\nclass = y[1]", fillcolor="#399de5"] ;
385 -> 387 ;
388 [label="nameDest <= 35429.5\ngini = 0.006\nsamples = 329\nvalue = [328, 1]\nclass = y[0]", fillcolor="#e5813a"] ;
384 -> 388 ;
389 [label="nameDest <= 35126.5\ngini = 0.077\nsamples = 25\nvalue = [24, 1]\nclass = y[0]", fillcolor="#e68641"] ;
388 -> 389 ;
390 [label="gini = 0.0\nsamples = 24\nvalue = [24, 0]\nclass = y[0]", fillcolor="#e58139"] ;
389 -> 390 ;
391 [label="gini = 0.0\nsamples = 1\nvalue = [0, 1]\nclass = y[1]", fillcolor="#399de5"] ;
389 -> 391 ;
392 [label="gini = 0.0\nsamples = 304\nvalue = [304, 0]\nclass = y[0]", fillcolor="#e58139"] ;
388 -> 392 ;
393 [label="amount <= 29384.03\ngini = 0.084\nsamples = 159\nvalue = [152, 7]\nclass = y[0]", fillcolor="#e68742"] ;
349 -> 393 ;
394 [label="step <= 280.0\ngini = 0.48\nsamples = 5\nvalue = [2, 3]\nclass = y[1]", fillcolor="#bddef6"] ;
393 -> 394 ;
395 [label="gini = 0.0\nsamples = 3\nvalue = [0, 3]\nclass = y[1]", fillcolor="#399de5"] ;
394 -> 395 ;
396 [label="gini = 0.0\nsamples = 2\nvalue = [2, 0]\nclass = y[0]", fillcolor="#e58139"] ;
394 -> 396 ;
397 [label="newbalanceDest <= 31378.819\ngini = 0.051\nsamples = 154\nvalue = [150, 4]\nclass = y[0]", fillcolor="#e6843e"] ;
393 -> 397 ;
398 [label="oldbalanceOrg <= 31253.785\ngini = 0.184\nsamples = 39\nvalue = [35, 4]\nclass = y[0]", fillcolor="#e88f50"] ;
397 -> 398 ;
399 [label="step <= 93.5\ngini = 0.102\nsamples = 37\nvalue = [35, 2]\nclass = y[0]", fillcolor="#e68844"] ;
398 -> 399 ;
400 [label="amount <= 31154.67\ngini = 0.48\nsamples = 5\nvalue = [3, 2]\nclass = y[0]", fillcolor="#f6d5bd"] ;
399 -> 400 ;
401 [label="nameDest <= 191847.5\ngini = 0.444\nsamples = 3\nvalue = [1, 2]\nclass = y[1]", fillcolor="#9ccef2"] ;
400 -> 401 ;
402 [label="gini = 0.0\nsamples = 1\nvalue = [1, 0]\nclass = y[0]", fillcolor="#e58139"] ;
401 -> 402 ;
403 [label="gini = 0.0\nsamples = 2\nvalue = [0, 2]\nclass = y[1]", fillcolor="#399de5"] ;
401 -> 403 ;
404 [label="gini = 0.0\nsamples = 2\nvalue = [2, 0]\nclass = y[0]", fillcolor="#e58139"] ;
400 -> 404 ;
405 [label="gini = 0.0\nsamples = 32\nvalue = [32, 0]\nclass = y[0]", fillcolor="#e58139"] ;
399 -> 405 ;
406 [label="gini = 0.0\nsamples = 2\nvalue = [0, 2]\nclass = y[1]", fillcolor="#399de5"] ;
398 -> 406 ;
407 [label="gini = 0.0\nsamples = 115\nvalue = [115, 0]\nclass = y[0]", fillcolor="#e58139"] ;
397 -> 407 ;
408 [label="gini = 0.0\nsamples = 1\nvalue = [0, 1]\nclass = y[1]", fillcolor="#399de5"] ;
348 -> 408 ;
409 [label="gini = 0.0\nsamples = 2988\nvalue = [2988, 0]\nclass = y[0]", fillcolor="#e58139"] ;
341 -> 409 ;
410 [label="gini = 0.0\nsamples = 1\nvalue = [0, 1]\nclass = y[1]", fillcolor="#399de5"] ;
318 -> 410 ;
411 [label="oldbalanceOrg <= 0.5\ngini = 0.0\nsamples = 48714\nvalue = [48712, 2]\nclass = y[0]", fillcolor="#e58139"] ;
317 -> 411 ;
412 [label="oldbalanceDest <= 36.785\ngini = 0.001\nsamples = 3818\nvalue = [3816, 2]\nclass = y[0]", fillcolor="#e58139"] ;
411 -> 412 ;
413 [label="nameOrig <= 2692679.0\ngini = 0.021\nsamples = 190\nvalue = [188, 2]\nclass = y[0]", fillcolor="#e5823b"] ;
412 -> 413 ;
414 [label="newbalanceDest <= 40899.148\ngini = 0.011\nsamples = 183\nvalue = [182, 1]\nclass = y[0]", fillcolor="#e5823a"] ;
413 -> 414 ;
415 [label="newbalanceDest <= 40531.135\ngini = 0.111\nsamples = 17\nvalue = [16, 1]\nclass = y[0]", fillcolor="#e78945"] ;
414 -> 415 ;
416 [label="gini = 0.0\nsamples = 16\nvalue = [16, 0]\nclass = y[0]", fillcolor="#e58139"] ;
415 -> 416 ;
417 [label="gini = 0.0\nsamples = 1\nvalue = [0, 1]\nclass = y[1]", fillcolor="#399de5"] ;
415 -> 417 ;
418 [label="gini = 0.0\nsamples = 166\nvalue = [166, 0]\nclass = y[0]", fillcolor="#e58139"] ;
414 -> 418 ;
419 [label="nameOrig <= 2695527.5\ngini = 0.245\nsamples = 7\nvalue = [6, 1]\nclass = y[0]", fillcolor="#e9965a"] ;
413 -> 419 ;
420 [label="gini = 0.0\nsamples = 1\nvalue = [0, 1]\nclass = y[1]", fillcolor="#399de5"] ;
419 -> 420 ;
421 [label="gini = 0.0\nsamples = 6\nvalue = [6, 0]\nclass = y[0]", fillcolor="#e58139"] ;
419 -> 421 ;
422 [label="gini = 0.0\nsamples = 3628\nvalue = [3628, 0]\nclass = y[0]", fillcolor="#e58139"] ;
412 -> 422 ;
423 [label="gini = 0.0\nsamples = 44896\nvalue = [44896, 0]\nclass = y[0]", fillcolor="#e58139"] ;
411 -> 423 ;
424 [label="oldbalanceOrg <= 36039.055\ngini = 0.006\nsamples = 27781\nvalue = [27696, 85]\nclass = y[0]", fillcolor="#e5813a"] ;
192 -> 424 ;
425 [label="gini = 0.0\nsamples = 1\nvalue = [0, 1]\nclass = y[1]", fillcolor="#399de5"] ;
424 -> 425 ;
426 [label="newbalanceOrig <= 0.505\ngini = 0.006\nsamples = 27780\nvalue = [27696, 84]\nclass = y[0]", fillcolor="#e5813a"] ;
424 -> 426 ;
427 [label="amount <= 37677.15\ngini = 0.016\nsamples = 10185\nvalue = [10101, 84]\nclass = y[0]", fillcolor="#e5823b"] ;
426 -> 427 ;
428 [label="oldbalanceOrg <= 36820.564\ngini = 0.5\nsamples = 16\nvalue = [8, 8]\nclass = y[0]", fillcolor="#ffffff"] ;
427 -> 428 ;
429 [label="amount <= 36530.82\ngini = 0.397\nsamples = 11\nvalue = [8, 3]\nclass = y[0]", fillcolor="#efb083"] ;
428 -> 429 ;
430 [label="gini = 0.0\nsamples = 3\nvalue = [0, 3]\nclass = y[1]", fillcolor="#399de5"] ;
429 -> 430 ;
431 [label="gini = 0.0\nsamples = 8\nvalue = [8, 0]\nclass = y[0]", fillcolor="#e58139"] ;
429 -> 431 ;
432 [label="gini = 0.0\nsamples = 5\nvalue = [0, 5]\nclass = y[1]", fillcolor="#399de5"] ;
428 -> 432 ;
433 [label="amount <= 40453.994\ngini = 0.015\nsamples = 10169\nvalue = [10093, 76]\nclass = y[0]", fillcolor="#e5823a"] ;
427 -> 433 ;
434 [label="oldbalanceOrg <= 40086.779\ngini = 0.233\nsamples = 52\nvalue = [45, 7]\nclass = y[0]", fillcolor="#e99558"] ;
433 -> 434 ;
435 [label="oldbalanceOrg <= 38145.609\ngini = 0.15\nsamples = 49\nvalue = [45, 4]\nclass = y[0]", fillcolor="#e78c4b"] ;
434 -> 435 ;
436 [label="gini = 0.0\nsamples = 28\nvalue = [28, 0]\nclass = y[0]", fillcolor="#e58139"] ;
435 -> 436 ;
437 [label="amount <= 38752.895\ngini = 0.308\nsamples = 21\nvalue = [17, 4]\nclass = y[0]", fillcolor="#eb9f68"] ;
435 -> 437 ;
438 [label="gini = 0.0\nsamples = 2\nvalue = [0, 2]\nclass = y[1]", fillcolor="#399de5"] ;
437 -> 438 ;
439 [label="newbalanceDest <= 39717.068\ngini = 0.188\nsamples = 19\nvalue = [17, 2]\nclass = y[0]", fillcolor="#e89050"] ;
437 -> 439 ;
440 [label="nameOrig <= 838735.0\ngini = 0.48\nsamples = 5\nvalue = [3, 2]\nclass = y[0]", fillcolor="#f6d5bd"] ;
439 -> 440 ;
441 [label="gini = 0.0\nsamples = 2\nvalue = [0, 2]\nclass = y[1]", fillcolor="#399de5"] ;
440 -> 441 ;
442 [label="gini = 0.0\nsamples = 3\nvalue = [3, 0]\nclass = y[0]", fillcolor="#e58139"] ;
440 -> 442 ;
443 [label="gini = 0.0\nsamples = 14\nvalue = [14, 0]\nclass = y[0]", fillcolor="#e58139"] ;
439 -> 443 ;
444 [label="gini = 0.0\nsamples = 3\nvalue = [0, 3]\nclass = y[1]", fillcolor="#399de5"] ;
434 -> 444 ;
445 [label="oldbalanceOrg <= 92545.086\ngini = 0.014\nsamples = 10117\nvalue = [10048, 69]\nclass = y[0]", fillcolor="#e5823a"] ;
433 -> 445 ;
446 [label="oldbalanceOrg <= 53337.725\ngini = 0.011\nsamples = 9839\nvalue = [9787, 52]\nclass = y[0]", fillcolor="#e5823a"] ;
445 -> 446 ;
447 [label="amount <= 50825.365\ngini = 0.004\nsamples = 6478\nvalue = [6465, 13]\nclass = y[0]", fillcolor="#e58139"] ;
446 -> 447 ;
448 [label="oldbalanceOrg <= 50662.08\ngini = 0.041\nsamples = 573\nvalue = [561, 12]\nclass = y[0]", fillcolor="#e6843d"] ;
447 -> 448 ;
449 [label="oldbalanceOrg <= 42415.711\ngini = 0.034\nsamples = 571\nvalue = [561, 10]\nclass = y[0]", fillcolor="#e5833d"] ;
448 -> 449 ;
450 [label="gini = 0.0\nsamples = 436\nvalue = [436, 0]\nclass = y[0]", fillcolor="#e58139"] ;
449 -> 450 ;
451 [label="amount <= 42638.27\ngini = 0.137\nsamples = 135\nvalue = [125, 10]\nclass = y[0]", fillcolor="#e78b49"] ;
449 -> 451 ;
452 [label="gini = 0.0\nsamples = 3\nvalue = [0, 3]\nclass = y[1]", fillcolor="#399de5"] ;
451 -> 452 ;
453 [label="amount <= 44165.656\ngini = 0.1\nsamples = 132\nvalue = [125, 7]\nclass = y[0]", fillcolor="#e68844"] ;
451 -> 453 ;
454 [label="oldbalanceOrg <= 43702.154\ngini = 0.397\nsamples = 11\nvalue = [8, 3]\nclass = y[0]", fillcolor="#efb083"] ;
453 -> 454 ;
455 [label="oldbalanceDest <= 33385.725\ngini = 0.198\nsamples = 9\nvalue = [8, 1]\nclass = y[0]", fillcolor="#e89152"] ;
454 -> 455 ;
456 [label="gini = 0.0\nsamples = 8\nvalue = [8, 0]\nclass = y[0]", fillcolor="#e58139"] ;
455 -> 456 ;
457 [label="gini = 0.0\nsamples = 1\nvalue = [0, 1]\nclass = y[1]", fillcolor="#399de5"] ;
455 -> 457 ;
458 [label="gini = 0.0\nsamples = 2\nvalue = [0, 2]\nclass = y[1]", fillcolor="#399de5"] ;
454 -> 458 ;
459 [label="oldbalanceOrg <= 46752.52\ngini = 0.064\nsamples = 121\nvalue = [117, 4]\nclass = y[0]", fillcolor="#e68540"] ;
453 -> 459 ;
460 [label="gini = 0.0\nsamples = 83\nvalue = [83, 0]\nclass = y[0]", fillcolor="#e58139"] ;
459 -> 460 ;
461 [label="amount <= 47882.709\ngini = 0.188\nsamples = 38\nvalue = [34, 4]\nclass = y[0]", fillcolor="#e89050"] ;
459 -> 461 ;
462 [label="step <= 262.5\ngini = 0.444\nsamples = 3\nvalue = [1, 2]\nclass = y[1]", fillcolor="#9ccef2"] ;
461 -> 462 ;
463 [label="gini = 0.0\nsamples = 1\nvalue = [1, 0]\nclass = y[0]", fillcolor="#e58139"] ;
462 -> 463 ;
464 [label="gini = 0.0\nsamples = 2\nvalue = [0, 2]\nclass = y[1]", fillcolor="#399de5"] ;
462 -> 464 ;
465 [label="newbalanceDest <= 49284.615\ngini = 0.108\nsamples = 35\nvalue = [33, 2]\nclass = y[0]", fillcolor="#e78945"] ;
461 -> 465 ;
466 [label="nameOrig <= 289923.5\ngini = 0.346\nsamples = 9\nvalue = [7, 2]\nclass = y[0]", fillcolor="#eca572"] ;
465 -> 466 ;
467 [label="gini = 0.0\nsamples = 1\nvalue = [0, 1]\nclass = y[1]", fillcolor="#399de5"] ;
466 -> 467 ;
468 [label="newbalanceDest <= 49109.285\ngini = 0.219\nsamples = 8\nvalue = [7, 1]\nclass = y[0]", fillcolor="#e99355"] ;
466 -> 468 ;
469 [label="gini = 0.0\nsamples = 7\nvalue = [7, 0]\nclass = y[0]", fillcolor="#e58139"] ;
468 -> 469 ;
470 [label="gini = 0.0\nsamples = 1\nvalue = [0, 1]\nclass = y[1]", fillcolor="#399de5"] ;
468 -> 470 ;
471 [label="gini = 0.0\nsamples = 26\nvalue = [26, 0]\nclass = y[0]", fillcolor="#e58139"] ;
465 -> 471 ;
472 [label="gini = 0.0\nsamples = 2\nvalue = [0, 2]\nclass = y[1]", fillcolor="#399de5"] ;
448 -> 472 ;
473 [label="nameDest <= 2666.5\ngini = 0.0\nsamples = 5905\nvalue = [5904, 1]\nclass = y[0]", fillcolor="#e58139"] ;
447 -> 473 ;
474 [label="amount <= 54330.975\ngini = 0.069\nsamples = 28\nvalue = [27, 1]\nclass = y[0]", fillcolor="#e68640"] ;
473 -> 474 ;
475 [label="gini = 0.0\nsamples = 1\nvalue = [0, 1]\nclass = y[1]", fillcolor="#399de5"] ;
474 -> 475 ;
476 [label="gini = 0.0\nsamples = 27\nvalue = [27, 0]\nclass = y[0]", fillcolor="#e58139"] ;
474 -> 476 ;
477 [label="gini = 0.0\nsamples = 5877\nvalue = [5877, 0]\nclass = y[0]", fillcolor="#e58139"] ;
473 -> 477 ;
478 [label="amount <= 55064.91\ngini = 0.023\nsamples = 3361\nvalue = [3322, 39]\nclass = y[0]", fillcolor="#e5823b"] ;
446 -> 478 ;
479 [label="oldbalanceOrg <= 54687.77\ngini = 0.49\nsamples = 14\nvalue = [8, 6]\nclass = y[0]", fillcolor="#f8e0ce"] ;
478 -> 479 ;
480 [label="amount <= 54252.469\ngini = 0.397\nsamples = 11\nvalue = [8, 3]\nclass = y[0]", fillcolor="#efb083"] ;
479 -> 480 ;
481 [label="nameDest <= 401290.5\ngini = 0.375\nsamples = 4\nvalue = [1, 3]\nclass = y[1]", fillcolor="#7bbeee"] ;
480 -> 481 ;
482 [label="gini = 0.0\nsamples = 3\nvalue = [0, 3]\nclass = y[1]", fillcolor="#399de5"] ;
481 -> 482 ;
483 [label="gini = 0.0\nsamples = 1\nvalue = [1, 0]\nclass = y[0]", fillcolor="#e58139"] ;
481 -> 483 ;
484 [label="gini = 0.0\nsamples = 7\nvalue = [7, 0]\nclass = y[0]", fillcolor="#e58139"] ;
480 -> 484 ;
485 [label="gini = 0.0\nsamples = 3\nvalue = [0, 3]\nclass = y[1]", fillcolor="#399de5"] ;
479 -> 485 ;
486 [label="amount <= 61858.01\ngini = 0.02\nsamples = 3347\nvalue = [3314, 33]\nclass = y[0]", fillcolor="#e5823b"] ;
478 -> 486 ;
487 [label="oldbalanceOrg <= 61332.336\ngini = 0.133\nsamples = 126\nvalue = [117, 9]\nclass = y[0]", fillcolor="#e78b48"] ;
486 -> 487 ;
488 [label="newbalanceDest <= 101765.887\ngini = 0.107\nsamples = 124\nvalue = [117, 7]\nclass = y[0]", fillcolor="#e78945"] ;
487 -> 488 ;
489 [label="oldbalanceOrg <= 59810.305\ngini = 0.093\nsamples = 123\nvalue = [117, 6]\nclass = y[0]", fillcolor="#e68743"] ;
488 -> 489 ;
490 [label="nameDest <= 150949.0\ngini = 0.053\nsamples = 110\nvalue = [107, 3]\nclass = y[0]", fillcolor="#e6853f"] ;
489 -> 490 ;
491 [label="nameDest <= 146455.5\ngini = 0.145\nsamples = 38\nvalue = [35, 3]\nclass = y[0]", fillcolor="#e78c4a"] ;
490 -> 491 ;
492 [label="oldbalanceOrg <= 58921.17\ngini = 0.102\nsamples = 37\nvalue = [35, 2]\nclass = y[0]", fillcolor="#e68844"] ;
491 -> 492 ;
493 [label="oldbalanceOrg <= 57622.795\ngini = 0.056\nsamples = 35\nvalue = [34, 1]\nclass = y[0]", fillcolor="#e6853f"] ;
492 -> 493 ;
494 [label="gini = 0.0\nsamples = 29\nvalue = [29, 0]\nclass = y[0]", fillcolor="#e58139"] ;
493 -> 494 ;
495 [label="amount <= 58174.631\ngini = 0.278\nsamples = 6\nvalue = [5, 1]\nclass = y[0]", fillcolor="#ea9a61"] ;
493 -> 495 ;
496 [label="gini = 0.0\nsamples = 1\nvalue = [0, 1]\nclass = y[1]", fillcolor="#399de5"] ;
495 -> 496 ;
497 [label="gini = 0.0\nsamples = 5\nvalue = [5, 0]\nclass = y[0]", fillcolor="#e58139"] ;
495 -> 497 ;
498 [label="nameOrig <= 1788138.0\ngini = 0.5\nsamples = 2\nvalue = [1, 1]\nclass = y[0]", fillcolor="#ffffff"] ;
492 -> 498 ;
499 [label="gini = 0.0\nsamples = 1\nvalue = [1, 0]\nclass = y[0]", fillcolor="#e58139"] ;
498 -> 499 ;
500 [label="gini = 0.0\nsamples = 1\nvalue = [0, 1]\nclass = y[1]", fillcolor="#399de5"] ;
498 -> 500 ;
501 [label="gini = 0.0\nsamples = 1\nvalue = [0, 1]\nclass = y[1]", fillcolor="#399de5"] ;
491 -> 501 ;
502 [label="gini = 0.0\nsamples = 72\nvalue = [72, 0]\nclass = y[0]", fillcolor="#e58139"] ;
490 -> 502 ;
503 [label="amount <= 60592.15\ngini = 0.355\nsamples = 13\nvalue = [10, 3]\nclass = y[0]", fillcolor="#eda774"] ;
489 -> 503 ;
504 [label="nameOrig <= 2368645.5\ngini = 0.375\nsamples = 4\nvalue = [1, 3]\nclass = y[1]", fillcolor="#7bbeee"] ;
503 -> 504 ;
505 [label="gini = 0.0\nsamples = 3\nvalue = [0, 3]\nclass = y[1]", fillcolor="#399de5"] ;
504 -> 505 ;
506 [label="gini = 0.0\nsamples = 1\nvalue = [1, 0]\nclass = y[0]", fillcolor="#e58139"] ;
504 -> 506 ;
507 [label="gini = 0.0\nsamples = 9\nvalue = [9, 0]\nclass = y[0]", fillcolor="#e58139"] ;
503 -> 507 ;
508 [label="gini = 0.0\nsamples = 1\nvalue = [0, 1]\nclass = y[1]", fillcolor="#399de5"] ;
488 -> 508 ;
509 [label="gini = 0.0\nsamples = 2\nvalue = [0, 2]\nclass = y[1]", fillcolor="#399de5"] ;
487 -> 509 ;
510 [label="amount <= 76649.844\ngini = 0.015\nsamples = 3221\nvalue = [3197, 24]\nclass = y[0]", fillcolor="#e5823a"] ;
486 -> 510 ;
511 [label="oldbalanceOrg <= 75310.434\ngini = 0.046\nsamples = 675\nvalue = [659, 16]\nclass = y[0]", fillcolor="#e6843e"] ;
510 -> 511 ;
512 [label="oldbalanceOrg <= 70751.449\ngini = 0.038\nsamples = 672\nvalue = [659, 13]\nclass = y[0]", fillcolor="#e6833d"] ;
511 -> 512 ;
513 [label="oldbalanceOrg <= 63205.955\ngini = 0.019\nsamples = 626\nvalue = [620, 6]\nclass = y[0]", fillcolor="#e5823b"] ;
512 -> 513 ;
514 [label="gini = 0.0\nsamples = 469\nvalue = [469, 0]\nclass = y[0]", fillcolor="#e58139"] ;
513 -> 514 ;
515 [label="amount <= 63748.209\ngini = 0.074\nsamples = 157\nvalue = [151, 6]\nclass = y[0]", fillcolor="#e68641"] ;
513 -> 515 ;
516 [label="nameDest <= 302538.5\ngini = 0.444\nsamples = 3\nvalue = [1, 2]\nclass = y[1]", fillcolor="#9ccef2"] ;
515 -> 516 ;
517 [label="gini = 0.0\nsamples = 2\nvalue = [0, 2]\nclass = y[1]", fillcolor="#399de5"] ;
516 -> 517 ;
518 [label="gini = 0.0\nsamples = 1\nvalue = [1, 0]\nclass = y[0]", fillcolor="#e58139"] ;
516 -> 518 ;
519 [label="newbalanceDest <= 68279.27\ngini = 0.051\nsamples = 154\nvalue = [150, 4]\nclass = y[0]", fillcolor="#e6843e"] ;
515 -> 519 ;
520 [label="oldbalanceOrg <= 66421.0\ngini = 0.26\nsamples = 26\nvalue = [22, 4]\nclass = y[0]", fillcolor="#ea985d"] ;
519 -> 520 ;
521 [label="nameOrig <= 234557.0\ngini = 0.091\nsamples = 21\nvalue = [20, 1]\nclass = y[0]", fillcolor="#e68743"] ;
520 -> 521 ;
522 [label="gini = 0.0\nsamples = 1\nvalue = [0, 1]\nclass = y[1]", fillcolor="#399de5"] ;
521 -> 522 ;
523 [label="gini = 0.0\nsamples = 20\nvalue = [20, 0]\nclass = y[0]", fillcolor="#e58139"] ;
521 -> 523 ;
524 [label="newbalanceDest <= 67298.746\ngini = 0.48\nsamples = 5\nvalue = [2, 3]\nclass = y[1]", fillcolor="#bddef6"] ;
520 -> 524 ;
525 [label="gini = 0.0\nsamples = 2\nvalue = [0, 2]\nclass = y[1]", fillcolor="#399de5"] ;
524 -> 525 ;
526 [label="nameDest <= 429795.5\ngini = 0.444\nsamples = 3\nvalue = [2, 1]\nclass = y[0]", fillcolor="#f2c09c"] ;
524 -> 526 ;
527 [label="gini = 0.0\nsamples = 2\nvalue = [2, 0]\nclass = y[0]", fillcolor="#e58139"] ;
526 -> 527 ;
528 [label="gini = 0.0\nsamples = 1\nvalue = [0, 1]\nclass = y[1]", fillcolor="#399de5"] ;
526 -> 528 ;
529 [label="gini = 0.0\nsamples = 128\nvalue = [128, 0]\nclass = y[0]", fillcolor="#e58139"] ;
519 -> 529 ;
530 [label="amount <= 71694.371\ngini = 0.258\nsamples = 46\nvalue = [39, 7]\nclass = y[0]", fillcolor="#ea985d"] ;
512 -> 530 ;
531 [label="gini = 0.0\nsamples = 4\nvalue = [0, 4]\nclass = y[1]", fillcolor="#399de5"] ;
530 -> 531 ;
532 [label="oldbalanceDest <= 29196.445\ngini = 0.133\nsamples = 42\nvalue = [39, 3]\nclass = y[0]", fillcolor="#e78b48"] ;
530 -> 532 ;
533 [label="oldbalanceOrg <= 73460.285\ngini = 0.093\nsamples = 41\nvalue = [39, 2]\nclass = y[0]", fillcolor="#e68743"] ;
532 -> 533 ;
534 [label="gini = 0.0\nsamples = 34\nvalue = [34, 0]\nclass = y[0]", fillcolor="#e58139"] ;
533 -> 534 ;
535 [label="amount <= 75106.488\ngini = 0.408\nsamples = 7\nvalue = [5, 2]\nclass = y[0]", fillcolor="#efb388"] ;
533 -> 535 ;
536 [label="nameOrig <= 441932.5\ngini = 0.444\nsamples = 3\nvalue = [1, 2]\nclass = y[1]", fillcolor="#9ccef2"] ;
535 -> 536 ;
537 [label="gini = 0.0\nsamples = 1\nvalue = [1, 0]\nclass = y[0]", fillcolor="#e58139"] ;
536 -> 537 ;
538 [label="gini = 0.0\nsamples = 2\nvalue = [0, 2]\nclass = y[1]", fillcolor="#399de5"] ;
536 -> 538 ;
539 [label="gini = 0.0\nsamples = 4\nvalue = [4, 0]\nclass = y[0]", fillcolor="#e58139"] ;
535 -> 539 ;
540 [label="gini = 0.0\nsamples = 1\nvalue = [0, 1]\nclass = y[1]", fillcolor="#399de5"] ;
532 -> 540 ;
541 [label="gini = 0.0\nsamples = 3\nvalue = [0, 3]\nclass = y[1]", fillcolor="#399de5"] ;
511 -> 541 ;
542 [label="oldbalanceOrg <= 79931.734\ngini = 0.006\nsamples = 2546\nvalue = [2538, 8]\nclass = y[0]", fillcolor="#e5813a"] ;
510 -> 542 ;
543 [label="gini = 0.0\nsamples = 2101\nvalue = [2101, 0]\nclass = y[0]", fillcolor="#e58139"] ;
542 -> 543 ;
544 [label="amount <= 82133.051\ngini = 0.035\nsamples = 445\nvalue = [437, 8]\nclass = y[0]", fillcolor="#e5833d"] ;
542 -> 544 ;
545 [label="nameDest <= 356981.5\ngini = 0.5\nsamples = 6\nvalue = [3, 3]\nclass = y[0]", fillcolor="#ffffff"] ;
544 -> 545 ;
546 [label="gini = 0.0\nsamples = 3\nvalue = [0, 3]\nclass = y[1]", fillcolor="#399de5"] ;
545 -> 546 ;
547 [label="gini = 0.0\nsamples = 3\nvalue = [3, 0]\nclass = y[0]", fillcolor="#e58139"] ;
545 -> 547 ;
548 [label="nameDest <= 506156.5\ngini = 0.023\nsamples = 439\nvalue = [434, 5]\nclass = y[0]", fillcolor="#e5823b"] ;
544 -> 548 ;
549 [label="amount <= 85132.938\ngini = 0.018\nsamples = 437\nvalue = [433, 4]\nclass = y[0]", fillcolor="#e5823b"] ;
548 -> 549 ;
550 [label="oldbalanceOrg <= 84945.996\ngini = 0.236\nsamples = 22\nvalue = [19, 3]\nclass = y[0]", fillcolor="#e99558"] ;
549 -> 550 ;
551 [label="step <= 364.0\ngini = 0.095\nsamples = 20\nvalue = [19, 1]\nclass = y[0]", fillcolor="#e68843"] ;
550 -> 551 ;
552 [label="gini = 0.0\nsamples = 17\nvalue = [17, 0]\nclass = y[0]", fillcolor="#e58139"] ;
551 -> 552 ;
553 [label="amount <= 82834.051\ngini = 0.444\nsamples = 3\nvalue = [2, 1]\nclass = y[0]", fillcolor="#f2c09c"] ;
551 -> 553 ;
554 [label="gini = 0.0\nsamples = 1\nvalue = [0, 1]\nclass = y[1]", fillcolor="#399de5"] ;
553 -> 554 ;
555 [label="gini = 0.0\nsamples = 2\nvalue = [2, 0]\nclass = y[0]", fillcolor="#e58139"] ;
553 -> 555 ;
556 [label="gini = 0.0\nsamples = 2\nvalue = [0, 2]\nclass = y[1]", fillcolor="#399de5"] ;
550 -> 556 ;
557 [label="nameDest <= 67497.5\ngini = 0.005\nsamples = 415\nvalue = [414, 1]\nclass = y[0]", fillcolor="#e58139"] ;
549 -> 557 ;
558 [label="nameDest <= 67030.0\ngini = 0.038\nsamples = 52\nvalue = [51, 1]\nclass = y[0]", fillcolor="#e6833d"] ;
557 -> 558 ;
559 [label="gini = 0.0\nsamples = 51\nvalue = [51, 0]\nclass = y[0]", fillcolor="#e58139"] ;
558 -> 559 ;
560 [label="gini = 0.0\nsamples = 1\nvalue = [0, 1]\nclass = y[1]", fillcolor="#399de5"] ;
558 -> 560 ;
561 [label="gini = 0.0\nsamples = 363\nvalue = [363, 0]\nclass = y[0]", fillcolor="#e58139"] ;
557 -> 561 ;
562 [label="oldbalanceOrg <= 86779.895\ngini = 0.5\nsamples = 2\nvalue = [1, 1]\nclass = y[0]", fillcolor="#ffffff"] ;
548 -> 562 ;
563 [label="gini = 0.0\nsamples = 1\nvalue = [1, 0]\nclass = y[0]", fillcolor="#e58139"] ;
562 -> 563 ;
564 [label="gini = 0.0\nsamples = 1\nvalue = [0, 1]\nclass = y[1]", fillcolor="#399de5"] ;
562 -> 564 ;
565 [label="amount <= 96484.434\ngini = 0.115\nsamples = 278\nvalue = [261, 17]\nclass = y[0]", fillcolor="#e78946"] ;
445 -> 565 ;
566 [label="oldbalanceOrg <= 94215.559\ngini = 0.42\nsamples = 10\nvalue = [3, 7]\nclass = y[1]", fillcolor="#8ec7f0"] ;
565 -> 566 ;
567 [label="step <= 288.5\ngini = 0.48\nsamples = 5\nvalue = [3, 2]\nclass = y[0]", fillcolor="#f6d5bd"] ;
566 -> 567 ;
568 [label="gini = 0.0\nsamples = 2\nvalue = [2, 0]\nclass = y[0]", fillcolor="#e58139"] ;
567 -> 568 ;
569 [label="nameDest <= 363436.5\ngini = 0.444\nsamples = 3\nvalue = [1, 2]\nclass = y[1]", fillcolor="#9ccef2"] ;
567 -> 569 ;
570 [label="gini = 0.0\nsamples = 2\nvalue = [0, 2]\nclass = y[1]", fillcolor="#399de5"] ;
569 -> 570 ;
571 [label="gini = 0.0\nsamples = 1\nvalue = [1, 0]\nclass = y[0]", fillcolor="#e58139"] ;
569 -> 571 ;
572 [label="gini = 0.0\nsamples = 5\nvalue = [0, 5]\nclass = y[1]", fillcolor="#399de5"] ;
566 -> 572 ;
573 [label="amount <= 103371.934\ngini = 0.072\nsamples = 268\nvalue = [258, 10]\nclass = y[0]", fillcolor="#e68641"] ;
565 -> 573 ;
574 [label="oldbalanceOrg <= 102922.762\ngini = 0.178\nsamples = 101\nvalue = [91, 10]\nclass = y[0]", fillcolor="#e88f4f"] ;
573 -> 574 ;
575 [label="nameOrig <= 280156.5\ngini = 0.133\nsamples = 98\nvalue = [91, 7]\nclass = y[0]", fillcolor="#e78b48"] ;
574 -> 575 ;
576 [label="nameDest <= 203730.5\ngini = 0.5\nsamples = 4\nvalue = [2, 2]\nclass = y[0]", fillcolor="#ffffff"] ;
575 -> 576 ;
577 [label="gini = 0.0\nsamples = 2\nvalue = [2, 0]\nclass = y[0]", fillcolor="#e58139"] ;
576 -> 577 ;
578 [label="gini = 0.0\nsamples = 2\nvalue = [0, 2]\nclass = y[1]", fillcolor="#399de5"] ;
576 -> 578 ;
579 [label="oldbalanceOrg <= 100980.16\ngini = 0.101\nsamples = 94\nvalue = [89, 5]\nclass = y[0]", fillcolor="#e68844"] ;
575 -> 579 ;
580 [label="oldbalanceDest <= 234.15\ngini = 0.048\nsamples = 81\nvalue = [79, 2]\nclass = y[0]", fillcolor="#e6843e"] ;
579 -> 580 ;
581 [label="nameOrig <= 2641913.5\ngini = 0.025\nsamples = 78\nvalue = [77, 1]\nclass = y[0]", fillcolor="#e5833c"] ;
580 -> 581 ;
582 [label="gini = 0.0\nsamples = 73\nvalue = [73, 0]\nclass = y[0]", fillcolor="#e58139"] ;
581 -> 582 ;
583 [label="nameOrig <= 2656674.5\ngini = 0.32\nsamples = 5\nvalue = [4, 1]\nclass = y[0]", fillcolor="#eca06a"] ;
581 -> 583 ;
584 [label="gini = 0.0\nsamples = 1\nvalue = [0, 1]\nclass = y[1]", fillcolor="#399de5"] ;
583 -> 584 ;
585 [label="gini = 0.0\nsamples = 4\nvalue = [4, 0]\nclass = y[0]", fillcolor="#e58139"] ;
583 -> 585 ;
586 [label="amount <= 100575.516\ngini = 0.444\nsamples = 3\nvalue = [2, 1]\nclass = y[0]", fillcolor="#f2c09c"] ;
580 -> 586 ;
587 [label="gini = 0.0\nsamples = 1\nvalue = [0, 1]\nclass = y[1]", fillcolor="#399de5"] ;
586 -> 587 ;
588 [label="gini = 0.0\nsamples = 2\nvalue = [2, 0]\nclass = y[0]", fillcolor="#e58139"] ;
586 -> 588 ;
589 [label="newbalanceDest <= 102290.52\ngini = 0.355\nsamples = 13\nvalue = [10, 3]\nclass = y[0]", fillcolor="#eda774"] ;
579 -> 589 ;
590 [label="nameOrig <= 1709150.0\ngini = 0.375\nsamples = 4\nvalue = [1, 3]\nclass = y[1]", fillcolor="#7bbeee"] ;
589 -> 590 ;
591 [label="gini = 0.0\nsamples = 3\nvalue = [0, 3]\nclass = y[1]", fillcolor="#399de5"] ;
590 -> 591 ;
592 [label="gini = 0.0\nsamples = 1\nvalue = [1, 0]\nclass = y[0]", fillcolor="#e58139"] ;
590 -> 592 ;
593 [label="gini = 0.0\nsamples = 9\nvalue = [9, 0]\nclass = y[0]", fillcolor="#e58139"] ;
589 -> 593 ;
594 [label="gini = 0.0\nsamples = 3\nvalue = [0, 3]\nclass = y[1]", fillcolor="#399de5"] ;
574 -> 594 ;
595 [label="gini = 0.0\nsamples = 167\nvalue = [167, 0]\nclass = y[0]", fillcolor="#e58139"] ;
573 -> 595 ;
596 [label="gini = 0.0\nsamples = 17595\nvalue = [17595, 0]\nclass = y[0]", fillcolor="#e58139"] ;
426 -> 596 ;
597 [label="oldbalanceOrg <= 103652.75\ngini = 0.444\nsamples = 3\nvalue = [2, 1]\nclass = y[0]", fillcolor="#f2c09c"] ;
187 -> 597 ;
598 [label="gini = 0.0\nsamples = 2\nvalue = [2, 0]\nclass = y[0]", fillcolor="#e58139"] ;
597 -> 598 ;
599 [label="gini = 0.0\nsamples = 1\nvalue = [0, 1]\nclass = y[1]", fillcolor="#399de5"] ;
597 -> 599 ;
600 [label="amount <= 99808.508\ngini = 0.0\nsamples = 1745912\nvalue = [1745677, 235]\nclass = y[0]", fillcolor="#e58139"] ;
186 -> 600 ;
601 [label="amount <= 99808.152\ngini = 0.001\nsamples = 452300\nvalue = [452086, 214]\nclass = y[0]", fillcolor="#e58139"] ;
600 -> 601 ;
602 [label="oldbalanceOrg <= 30820.085\ngini = 0.001\nsamples = 452299\nvalue = [452086, 213]\nclass = y[0]", fillcolor="#e58139"] ;
601 -> 602 ;
603 [label="oldbalanceOrg <= 1220.4\ngini = 0.0\nsamples = 394638\nvalue = [394560, 78]\nclass = y[0]", fillcolor="#e58139"] ;
602 -> 603 ;
604 [label="amount <= 222.37\ngini = 0.0\nsamples = 310846\nvalue = [310836, 10]\nclass = y[0]", fillcolor="#e58139"] ;
603 -> 604 ;
605 [label="amount <= 221.985\ngini = 0.018\nsamples = 561\nvalue = [556, 5]\nclass = y[0]", fillcolor="#e5823b"] ;
604 -> 605 ;
606 [label="oldbalanceOrg <= 92.0\ngini = 0.014\nsamples = 560\nvalue = [556, 4]\nclass = y[0]", fillcolor="#e5823a"] ;
605 -> 606 ;
607 [label="gini = 0.0\nsamples = 518\nvalue = [518, 0]\nclass = y[0]", fillcolor="#e58139"] ;
606 -> 607 ;
608 [label="newbalanceOrig <= 3.09\ngini = 0.172\nsamples = 42\nvalue = [38, 4]\nclass = y[0]", fillcolor="#e88e4e"] ;
606 -> 608 ;
609 [label="gini = 0.0\nsamples = 4\nvalue = [0, 4]\nclass = y[1]", fillcolor="#399de5"] ;
608 -> 609 ;
610 [label="gini = 0.0\nsamples = 38\nvalue = [38, 0]\nclass = y[0]", fillcolor="#e58139"] ;
608 -> 610 ;
611 [label="gini = 0.0\nsamples = 1\nvalue = [0, 1]\nclass = y[1]", fillcolor="#399de5"] ;
605 -> 611 ;
612 [label="amount <= 493.285\ngini = 0.0\nsamples = 310285\nvalue = [310280, 5]\nclass = y[0]", fillcolor="#e58139"] ;
604 -> 612 ;
613 [label="amount <= 493.215\ngini = 0.006\nsamples = 626\nvalue = [624, 2]\nclass = y[0]", fillcolor="#e5813a"] ;
612 -> 613 ;
614 [label="oldbalanceOrg <= 397.0\ngini = 0.003\nsamples = 625\nvalue = [624, 1]\nclass = y[0]", fillcolor="#e58139"] ;
613 -> 614 ;
615 [label="gini = 0.0\nsamples = 607\nvalue = [607, 0]\nclass = y[0]", fillcolor="#e58139"] ;
614 -> 615 ;
616 [label="step <= 14.0\ngini = 0.105\nsamples = 18\nvalue = [17, 1]\nclass = y[0]", fillcolor="#e78845"] ;
614 -> 616 ;
617 [label="gini = 0.0\nsamples = 1\nvalue = [0, 1]\nclass = y[1]", fillcolor="#399de5"] ;
616 -> 617 ;
618 [label="gini = 0.0\nsamples = 17\nvalue = [17, 0]\nclass = y[0]", fillcolor="#e58139"] ;
616 -> 618 ;
619 [label="gini = 0.0\nsamples = 1\nvalue = [0, 1]\nclass = y[1]", fillcolor="#399de5"] ;
613 -> 619 ;
620 [label="step <= 21.5\ngini = 0.0\nsamples = 309659\nvalue = [309656, 3]\nclass = y[0]", fillcolor="#e58139"] ;
612 -> 620 ;
621 [label="step <= 20.5\ngini = 0.0\nsamples = 26994\nvalue = [26992, 2]\nclass = y[0]", fillcolor="#e58139"] ;
620 -> 621 ;
622 [label="nameOrig <= 578786.5\ngini = 0.0\nsamples = 26049\nvalue = [26048, 1]\nclass = y[0]", fillcolor="#e58139"] ;
621 -> 622 ;
623 [label="nameOrig <= 578554.5\ngini = 0.0\nsamples = 5517\nvalue = [5516, 1]\nclass = y[0]", fillcolor="#e58139"] ;
622 -> 623 ;
624 [label="gini = 0.0\nsamples = 5516\nvalue = [5516, 0]\nclass = y[0]", fillcolor="#e58139"] ;
623 -> 624 ;
625 [label="gini = 0.0\nsamples = 1\nvalue = [0, 1]\nclass = y[1]", fillcolor="#399de5"] ;
623 -> 625 ;
626 [label="gini = 0.0\nsamples = 20532\nvalue = [20532, 0]\nclass = y[0]", fillcolor="#e58139"] ;
622 -> 626 ;
627 [label="amount <= 23307.78\ngini = 0.002\nsamples = 945\nvalue = [944, 1]\nclass = y[0]", fillcolor="#e58139"] ;
621 -> 627 ;
628 [label="amount <= 23290.21\ngini = 0.011\nsamples = 175\nvalue = [174, 1]\nclass = y[0]", fillcolor="#e5823a"] ;
627 -> 628 ;
629 [label="gini = 0.0\nsamples = 174\nvalue = [174, 0]\nclass = y[0]", fillcolor="#e58139"] ;
628 -> 629 ;
630 [label="gini = 0.0\nsamples = 1\nvalue = [0, 1]\nclass = y[1]", fillcolor="#399de5"] ;
628 -> 630 ;
631 [label="gini = 0.0\nsamples = 770\nvalue = [770, 0]\nclass = y[0]", fillcolor="#e58139"] ;
627 -> 631 ;
632 [label="amount <= 94372.477\ngini = 0.0\nsamples = 282665\nvalue = [282664, 1]\nclass = y[0]", fillcolor="#e58139"] ;
620 -> 632 ;
633 [label="gini = 0.0\nsamples = 266619\nvalue = [266619, 0]\nclass = y[0]", fillcolor="#e58139"] ;
632 -> 633 ;
634 [label="amount <= 94372.773\ngini = 0.0\nsamples = 16046\nvalue = [16045, 1]\nclass = y[0]", fillcolor="#e58139"] ;
632 -> 634 ;
635 [label="gini = 0.0\nsamples = 1\nvalue = [0, 1]\nclass = y[1]", fillcolor="#399de5"] ;
634 -> 635 ;
636 [label="gini = 0.0\nsamples = 16045\nvalue = [16045, 0]\nclass = y[0]", fillcolor="#e58139"] ;
634 -> 636 ;
637 [label="oldbalanceOrg <= 1220.9\ngini = 0.002\nsamples = 83792\nvalue = [83724, 68]\nclass = y[0]", fillcolor="#e58139"] ;
603 -> 637 ;
638 [label="gini = 0.0\nsamples = 1\nvalue = [0, 1]\nclass = y[1]", fillcolor="#399de5"] ;
637 -> 638 ;
639 [label="amount <= 30467.975\ngini = 0.002\nsamples = 83791\nvalue = [83724, 67]\nclass = y[0]", fillcolor="#e58139"] ;
637 -> 639 ;
640 [label="amount <= 30465.444\ngini = 0.006\nsamples = 22690\nvalue = [22624, 66]\nclass = y[0]", fillcolor="#e5813a"] ;
639 -> 640 ;
641 [label="newbalanceOrig <= 0.105\ngini = 0.006\nsamples = 22689\nvalue = [22624, 65]\nclass = y[0]", fillcolor="#e5813a"] ;
640 -> 641 ;
642 [label="amount <= 3381.65\ngini = 0.011\nsamples = 12166\nvalue = [12101, 65]\nclass = y[0]", fillcolor="#e5823a"] ;
641 -> 642 ;
643 [label="oldbalanceOrg <= 3115.125\ngini = 0.219\nsamples = 72\nvalue = [63, 9]\nclass = y[0]", fillcolor="#e99355"] ;
642 -> 643 ;
644 [label="step <= 14.0\ngini = 0.159\nsamples = 69\nvalue = [63, 6]\nclass = y[0]", fillcolor="#e78d4c"] ;
643 -> 644 ;
645 [label="oldbalanceDest <= 312727.336\ngini = 0.444\nsamples = 3\nvalue = [1, 2]\nclass = y[1]", fillcolor="#9ccef2"] ;
644 -> 645 ;
646 [label="gini = 0.0\nsamples = 2\nvalue = [0, 2]\nclass = y[1]", fillcolor="#399de5"] ;
645 -> 646 ;
647 [label="gini = 0.0\nsamples = 1\nvalue = [1, 0]\nclass = y[0]", fillcolor="#e58139"] ;
645 -> 647 ;
648 [label="nameDest <= 49163.5\ngini = 0.114\nsamples = 66\nvalue = [62, 4]\nclass = y[0]", fillcolor="#e78946"] ;
644 -> 648 ;
649 [label="oldbalanceDest <= 1154854.0\ngini = 0.469\nsamples = 8\nvalue = [5, 3]\nclass = y[0]", fillcolor="#f5cdb0"] ;
648 -> 649 ;
650 [label="step <= 318.5\ngini = 0.375\nsamples = 4\nvalue = [1, 3]\nclass = y[1]", fillcolor="#7bbeee"] ;
649 -> 650 ;
651 [label="gini = 0.0\nsamples = 3\nvalue = [0, 3]\nclass = y[1]", fillcolor="#399de5"] ;
650 -> 651 ;
652 [label="gini = 0.0\nsamples = 1\nvalue = [1, 0]\nclass = y[0]", fillcolor="#e58139"] ;
650 -> 652 ;
653 [label="gini = 0.0\nsamples = 4\nvalue = [4, 0]\nclass = y[0]", fillcolor="#e58139"] ;
649 -> 653 ;
654 [label="oldbalanceOrg <= 2711.755\ngini = 0.034\nsamples = 58\nvalue = [57, 1]\nclass = y[0]", fillcolor="#e5833c"] ;
648 -> 654 ;
655 [label="gini = 0.0\nsamples = 54\nvalue = [54, 0]\nclass = y[0]", fillcolor="#e58139"] ;
654 -> 655 ;
656 [label="oldbalanceDest <= 4077570.5\ngini = 0.375\nsamples = 4\nvalue = [3, 1]\nclass = y[0]", fillcolor="#eeab7b"] ;
654 -> 656 ;
657 [label="gini = 0.0\nsamples = 3\nvalue = [3, 0]\nclass = y[0]", fillcolor="#e58139"] ;
656 -> 657 ;
658 [label="gini = 0.0\nsamples = 1\nvalue = [0, 1]\nclass = y[1]", fillcolor="#399de5"] ;
656 -> 658 ;
659 [label="gini = 0.0\nsamples = 3\nvalue = [0, 3]\nclass = y[1]", fillcolor="#399de5"] ;
643 -> 659 ;
660 [label="oldbalanceOrg <= 26472.221\ngini = 0.009\nsamples = 12094\nvalue = [12038, 56]\nclass = y[0]", fillcolor="#e5823a"] ;
642 -> 660 ;
661 [label="oldbalanceOrg <= 16613.47\ngini = 0.008\nsamples = 11990\nvalue = [11941, 49]\nclass = y[0]", fillcolor="#e5823a"] ;
660 -> 661 ;
662 [label="amount <= 7361.175\ngini = 0.005\nsamples = 9873\nvalue = [9850, 23]\nclass = y[0]", fillcolor="#e58139"] ;
661 -> 662 ;
663 [label="oldbalanceOrg <= 6316.135\ngini = 0.041\nsamples = 475\nvalue = [465, 10]\nclass = y[0]", fillcolor="#e6843d"] ;
662 -> 663 ;
664 [label="oldbalanceOrg <= 5608.51\ngini = 0.021\nsamples = 464\nvalue = [459, 5]\nclass = y[0]", fillcolor="#e5823b"] ;
663 -> 664 ;
665 [label="step <= 385.0\ngini = 0.005\nsamples = 431\nvalue = [430, 1]\nclass = y[0]", fillcolor="#e58139"] ;
664 -> 665 ;
666 [label="gini = 0.0\nsamples = 402\nvalue = [402, 0]\nclass = y[0]", fillcolor="#e58139"] ;
665 -> 666 ;
667 [label="step <= 390.5\ngini = 0.067\nsamples = 29\nvalue = [28, 1]\nclass = y[0]", fillcolor="#e68640"] ;
665 -> 667 ;
668 [label="gini = 0.0\nsamples = 1\nvalue = [0, 1]\nclass = y[1]", fillcolor="#399de5"] ;
667 -> 668 ;
669 [label="gini = 0.0\nsamples = 28\nvalue = [28, 0]\nclass = y[0]", fillcolor="#e58139"] ;
667 -> 669 ;
670 [label="amount <= 5838.365\ngini = 0.213\nsamples = 33\nvalue = [29, 4]\nclass = y[0]", fillcolor="#e99254"] ;
664 -> 670 ;
671 [label="gini = 0.0\nsamples = 3\nvalue = [0, 3]\nclass = y[1]", fillcolor="#399de5"] ;
670 -> 671 ;
672 [label="oldbalanceDest <= 195399.844\ngini = 0.064\nsamples = 30\nvalue = [29, 1]\nclass = y[0]", fillcolor="#e68540"] ;
670 -> 672 ;
673 [label="oldbalanceDest <= 167308.875\ngini = 0.5\nsamples = 2\nvalue = [1, 1]\nclass = y[0]", fillcolor="#ffffff"] ;
672 -> 673 ;
674 [label="gini = 0.0\nsamples = 1\nvalue = [1, 0]\nclass = y[0]", fillcolor="#e58139"] ;
673 -> 674 ;
675 [label="gini = 0.0\nsamples = 1\nvalue = [0, 1]\nclass = y[1]", fillcolor="#399de5"] ;
673 -> 675 ;
676 [label="gini = 0.0\nsamples = 28\nvalue = [28, 0]\nclass = y[0]", fillcolor="#e58139"] ;
672 -> 676 ;
677 [label="amount <= 6864.48\ngini = 0.496\nsamples = 11\nvalue = [6, 5]\nclass = y[0]", fillcolor="#fbeade"] ;
663 -> 677 ;
678 [label="gini = 0.0\nsamples = 3\nvalue = [0, 3]\nclass = y[1]", fillcolor="#399de5"] ;
677 -> 678 ;
679 [label="oldbalanceOrg <= 7061.485\ngini = 0.375\nsamples = 8\nvalue = [6, 2]\nclass = y[0]", fillcolor="#eeab7b"] ;
677 -> 679 ;
680 [label="gini = 0.0\nsamples = 6\nvalue = [6, 0]\nclass = y[0]", fillcolor="#e58139"] ;
679 -> 680 ;
681 [label="gini = 0.0\nsamples = 2\nvalue = [0, 2]\nclass = y[1]", fillcolor="#399de5"] ;
679 -> 681 ;
682 [label="amount <= 14343.11\ngini = 0.003\nsamples = 9398\nvalue = [9385, 13]\nclass = y[0]", fillcolor="#e58139"] ;
662 -> 682 ;
683 [label="oldbalanceOrg <= 13754.575\ngini = 0.012\nsamples = 1948\nvalue = [1936, 12]\nclass = y[0]", fillcolor="#e5823a"] ;
682 -> 683 ;
684 [label="step <= 18.5\ngini = 0.008\nsamples = 1941\nvalue = [1933, 8]\nclass = y[0]", fillcolor="#e5823a"] ;
683 -> 684 ;
685 [label="oldbalanceOrg <= 11422.5\ngini = 0.068\nsamples = 114\nvalue = [110, 4]\nclass = y[0]", fillcolor="#e68640"] ;
684 -> 685 ;
686 [label="nameOrig <= 2613469.5\ngini = 0.038\nsamples = 104\nvalue = [102, 2]\nclass = y[0]", fillcolor="#e6833d"] ;
685 -> 686 ;
687 [label="newbalanceDest <= 240600.898\ngini = 0.02\nsamples = 99\nvalue = [98, 1]\nclass = y[0]", fillcolor="#e5823b"] ;
686 -> 687 ;
688 [label="newbalanceDest <= 230181.789\ngini = 0.1\nsamples = 19\nvalue = [18, 1]\nclass = y[0]", fillcolor="#e68844"] ;
687 -> 688 ;
689 [label="gini = 0.0\nsamples = 18\nvalue = [18, 0]\nclass = y[0]", fillcolor="#e58139"] ;
688 -> 689 ;
690 [label="gini = 0.0\nsamples = 1\nvalue = [0, 1]\nclass = y[1]", fillcolor="#399de5"] ;
688 -> 690 ;
691 [label="gini = 0.0\nsamples = 80\nvalue = [80, 0]\nclass = y[0]", fillcolor="#e58139"] ;
687 -> 691 ;
692 [label="nameOrig <= 2627540.5\ngini = 0.32\nsamples = 5\nvalue = [4, 1]\nclass = y[0]", fillcolor="#eca06a"] ;
686 -> 692 ;
693 [label="gini = 0.0\nsamples = 1\nvalue = [0, 1]\nclass = y[1]", fillcolor="#399de5"] ;
692 -> 693 ;
694 [label="gini = 0.0\nsamples = 4\nvalue = [4, 0]\nclass = y[0]", fillcolor="#e58139"] ;
692 -> 694 ;
695 [label="amount <= 11648.975\ngini = 0.32\nsamples = 10\nvalue = [8, 2]\nclass = y[0]", fillcolor="#eca06a"] ;
685 -> 695 ;
696 [label="gini = 0.0\nsamples = 2\nvalue = [0, 2]\nclass = y[1]", fillcolor="#399de5"] ;
695 -> 696 ;
697 [label="gini = 0.0\nsamples = 8\nvalue = [8, 0]\nclass = y[0]", fillcolor="#e58139"] ;
695 -> 697 ;
698 [label="nameDest <= 413634.5\ngini = 0.004\nsamples = 1827\nvalue = [1823, 4]\nclass = y[0]", fillcolor="#e58139"] ;
684 -> 698 ;
699 [label="oldbalanceOrg <= 11651.49\ngini = 0.001\nsamples = 1454\nvalue = [1453, 1]\nclass = y[0]", fillcolor="#e58139"] ;
698 -> 699 ;
700 [label="gini = 0.0\nsamples = 1396\nvalue = [1396, 0]\nclass = y[0]", fillcolor="#e58139"] ;
699 -> 700 ;
701 [label="oldbalanceOrg <= 11654.99\ngini = 0.034\nsamples = 58\nvalue = [57, 1]\nclass = y[0]", fillcolor="#e5833c"] ;
699 -> 701 ;
702 [label="gini = 0.0\nsamples = 1\nvalue = [0, 1]\nclass = y[1]", fillcolor="#399de5"] ;
701 -> 702 ;
703 [label="gini = 0.0\nsamples = 57\nvalue = [57, 0]\nclass = y[0]", fillcolor="#e58139"] ;
701 -> 703 ;
704 [label="nameDest <= 413681.0\ngini = 0.016\nsamples = 373\nvalue = [370, 3]\nclass = y[0]", fillcolor="#e5823b"] ;
698 -> 704 ;
705 [label="gini = 0.0\nsamples = 1\nvalue = [0, 1]\nclass = y[1]", fillcolor="#399de5"] ;
704 -> 705 ;
706 [label="amount <= 10224.745\ngini = 0.011\nsamples = 372\nvalue = [370, 2]\nclass = y[0]", fillcolor="#e5823a"] ;
704 -> 706 ;
707 [label="oldbalanceOrg <= 9643.445\ngini = 0.037\nsamples = 105\nvalue = [103, 2]\nclass = y[0]", fillcolor="#e6833d"] ;
706 -> 707 ;
708 [label="gini = 0.0\nsamples = 102\nvalue = [102, 0]\nclass = y[0]", fillcolor="#e58139"] ;
707 -> 708 ;
709 [label="nameOrig <= 1439783.0\ngini = 0.444\nsamples = 3\nvalue = [1, 2]\nclass = y[1]", fillcolor="#9ccef2"] ;
707 -> 709 ;
710 [label="gini = 0.0\nsamples = 1\nvalue = [1, 0]\nclass = y[0]", fillcolor="#e58139"] ;
709 -> 710 ;
711 [label="gini = 0.0\nsamples = 2\nvalue = [0, 2]\nclass = y[1]", fillcolor="#399de5"] ;
709 -> 711 ;
712 [label="gini = 0.0\nsamples = 267\nvalue = [267, 0]\nclass = y[0]", fillcolor="#e58139"] ;
706 -> 712 ;
713 [label="newbalanceDest <= 3591761.0\ngini = 0.49\nsamples = 7\nvalue = [3, 4]\nclass = y[1]", fillcolor="#cee6f8"] ;
683 -> 713 ;
714 [label="nameOrig <= 2618758.5\ngini = 0.32\nsamples = 5\nvalue = [1, 4]\nclass = y[1]", fillcolor="#6ab6ec"] ;
713 -> 714 ;
715 [label="gini = 0.0\nsamples = 4\nvalue = [0, 4]\nclass = y[1]", fillcolor="#399de5"] ;
714 -> 715 ;
716 [label="gini = 0.0\nsamples = 1\nvalue = [1, 0]\nclass = y[0]", fillcolor="#e58139"] ;
714 -> 716 ;
717 [label="gini = 0.0\nsamples = 2\nvalue = [2, 0]\nclass = y[0]", fillcolor="#e58139"] ;
713 -> 717 ;
718 [label="amount <= 15181.91\ngini = 0.0\nsamples = 7450\nvalue = [7449, 1]\nclass = y[0]", fillcolor="#e58139"] ;
682 -> 718 ;
719 [label="amount <= 15175.41\ngini = 0.006\nsamples = 335\nvalue = [334, 1]\nclass = y[0]", fillcolor="#e5813a"] ;
718 -> 719 ;
720 [label="gini = 0.0\nsamples = 334\nvalue = [334, 0]\nclass = y[0]", fillcolor="#e58139"] ;
719 -> 720 ;
721 [label="gini = 0.0\nsamples = 1\nvalue = [0, 1]\nclass = y[1]", fillcolor="#399de5"] ;
719 -> 721 ;
722 [label="gini = 0.0\nsamples = 7115\nvalue = [7115, 0]\nclass = y[0]", fillcolor="#e58139"] ;
718 -> 722 ;
723 [label="amount <= 16902.38\ngini = 0.024\nsamples = 2117\nvalue = [2091, 26]\nclass = y[0]", fillcolor="#e5833b"] ;
661 -> 723 ;
724 [label="gini = 0.0\nsamples = 2\nvalue = [0, 2]\nclass = y[1]", fillcolor="#399de5"] ;
723 -> 724 ;
725 [label="amount <= 20399.154\ngini = 0.022\nsamples = 2115\nvalue = [2091, 24]\nclass = y[0]", fillcolor="#e5823b"] ;
723 -> 725 ;
726 [label="oldbalanceOrg <= 20295.085\ngini = 0.199\nsamples = 107\nvalue = [95, 12]\nclass = y[0]", fillcolor="#e89152"] ;
725 -> 726 ;
727 [label="step <= 173.0\ngini = 0.172\nsamples = 105\nvalue = [95, 10]\nclass = y[0]", fillcolor="#e88e4e"] ;
726 -> 727 ;
728 [label="oldbalanceDest <= 2560445.625\ngini = 0.339\nsamples = 37\nvalue = [29, 8]\nclass = y[0]", fillcolor="#eca470"] ;
727 -> 728 ;
729 [label="amount <= 17583.025\ngini = 0.251\nsamples = 34\nvalue = [29, 5]\nclass = y[0]", fillcolor="#e9975b"] ;
728 -> 729 ;
730 [label="gini = 0.0\nsamples = 1\nvalue = [0, 1]\nclass = y[1]", fillcolor="#399de5"] ;
729 -> 730 ;
731 [label="nameDest <= 491742.5\ngini = 0.213\nsamples = 33\nvalue = [29, 4]\nclass = y[0]", fillcolor="#e99254"] ;
729 -> 731 ;
732 [label="oldbalanceOrg <= 18784.5\ngini = 0.17\nsamples = 32\nvalue = [29, 3]\nclass = y[0]", fillcolor="#e88e4d"] ;
731 -> 732 ;
733 [label="gini = 0.0\nsamples = 19\nvalue = [19, 0]\nclass = y[0]", fillcolor="#e58139"] ;
732 -> 733 ;
734 [label="amount <= 19853.311\ngini = 0.355\nsamples = 13\nvalue = [10, 3]\nclass = y[0]", fillcolor="#eda774"] ;
732 -> 734 ;
735 [label="nameDest <= 454335.0\ngini = 0.48\nsamples = 5\nvalue = [2, 3]\nclass = y[1]", fillcolor="#bddef6"] ;
734 -> 735 ;
736 [label="gini = 0.0\nsamples = 3\nvalue = [0, 3]\nclass = y[1]", fillcolor="#399de5"] ;
735 -> 736 ;
737 [label="gini = 0.0\nsamples = 2\nvalue = [2, 0]\nclass = y[0]", fillcolor="#e58139"] ;
735 -> 737 ;
738 [label="gini = 0.0\nsamples = 8\nvalue = [8, 0]\nclass = y[0]", fillcolor="#e58139"] ;
734 -> 738 ;
739 [label="gini = 0.0\nsamples = 1\nvalue = [0, 1]\nclass = y[1]", fillcolor="#399de5"] ;
731 -> 739 ;
740 [label="gini = 0.0\nsamples = 3\nvalue = [0, 3]\nclass = y[1]", fillcolor="#399de5"] ;
728 -> 740 ;
741 [label="oldbalanceDest <= 97411.707\ngini = 0.057\nsamples = 68\nvalue = [66, 2]\nclass = y[0]", fillcolor="#e6853f"] ;
727 -> 741 ;
742 [label="newbalanceDest <= 198386.906\ngini = 0.5\nsamples = 2\nvalue = [1, 1]\nclass = y[0]", fillcolor="#ffffff"] ;
741 -> 742 ;
743 [label="gini = 0.0\nsamples = 1\nvalue = [1, 0]\nclass = y[0]", fillcolor="#e58139"] ;
742 -> 743 ;
744 [label="gini = 0.0\nsamples = 1\nvalue = [0, 1]\nclass = y[1]", fillcolor="#399de5"] ;
742 -> 744 ;
745 [label="oldbalanceDest <= 4472314.0\ngini = 0.03\nsamples = 66\nvalue = [65, 1]\nclass = y[0]", fillcolor="#e5833c"] ;
741 -> 745 ;
746 [label="gini = 0.0\nsamples = 60\nvalue = [60, 0]\nclass = y[0]", fillcolor="#e58139"] ;
745 -> 746 ;
747 [label="newbalanceDest <= 4616767.5\ngini = 0.278\nsamples = 6\nvalue = [5, 1]\nclass = y[0]", fillcolor="#ea9a61"] ;
745 -> 747 ;
748 [label="gini = 0.0\nsamples = 1\nvalue = [0, 1]\nclass = y[1]", fillcolor="#399de5"] ;
747 -> 748 ;
749 [label="gini = 0.0\nsamples = 5\nvalue = [5, 0]\nclass = y[0]", fillcolor="#e58139"] ;
747 -> 749 ;
750 [label="gini = 0.0\nsamples = 2\nvalue = [0, 2]\nclass = y[1]", fillcolor="#399de5"] ;
726 -> 750 ;
751 [label="amount <= 22026.016\ngini = 0.012\nsamples = 2008\nvalue = [1996, 12]\nclass = y[0]", fillcolor="#e5823a"] ;
725 -> 751 ;
752 [label="oldbalanceOrg <= 21732.765\ngini = 0.075\nsamples = 230\nvalue = [221, 9]\nclass = y[0]", fillcolor="#e68641"] ;
751 -> 752 ;
753 [label="nameDest <= 5781.5\ngini = 0.027\nsamples = 223\nvalue = [220, 3]\nclass = y[0]", fillcolor="#e5833c"] ;
752 -> 753 ;
754 [label="oldbalanceDest <= 494961.125\ngini = 0.444\nsamples = 3\nvalue = [2, 1]\nclass = y[0]", fillcolor="#f2c09c"] ;
753 -> 754 ;
755 [label="gini = 0.0\nsamples = 1\nvalue = [0, 1]\nclass = y[1]", fillcolor="#399de5"] ;
754 -> 755 ;
756 [label="gini = 0.0\nsamples = 2\nvalue = [2, 0]\nclass = y[0]", fillcolor="#e58139"] ;
754 -> 756 ;
757 [label="step <= 405.5\ngini = 0.018\nsamples = 220\nvalue = [218, 2]\nclass = y[0]", fillcolor="#e5823b"] ;
753 -> 757 ;
758 [label="oldbalanceOrg <= 21492.19\ngini = 0.009\nsamples = 217\nvalue = [216, 1]\nclass = y[0]", fillcolor="#e5823a"] ;
757 -> 758 ;
759 [label="gini = 0.0\nsamples = 213\nvalue = [213, 0]\nclass = y[0]", fillcolor="#e58139"] ;
758 -> 759 ;
760 [label="oldbalanceOrg <= 21520.69\ngini = 0.375\nsamples = 4\nvalue = [3, 1]\nclass = y[0]", fillcolor="#eeab7b"] ;
758 -> 760 ;
761 [label="gini = 0.0\nsamples = 1\nvalue = [0, 1]\nclass = y[1]", fillcolor="#399de5"] ;
760 -> 761 ;
762 [label="gini = 0.0\nsamples = 3\nvalue = [3, 0]\nclass = y[0]", fillcolor="#e58139"] ;
760 -> 762 ;
763 [label="oldbalanceOrg <= 20634.46\ngini = 0.444\nsamples = 3\nvalue = [2, 1]\nclass = y[0]", fillcolor="#f2c09c"] ;
757 -> 763 ;
764 [label="gini = 0.0\nsamples = 2\nvalue = [2, 0]\nclass = y[0]", fillcolor="#e58139"] ;
763 -> 764 ;
765 [label="gini = 0.0\nsamples = 1\nvalue = [0, 1]\nclass = y[1]", fillcolor="#399de5"] ;
763 -> 765 ;
766 [label="nameOrig <= 430321.5\ngini = 0.245\nsamples = 7\nvalue = [1, 6]\nclass = y[1]", fillcolor="#5aade9"] ;
752 -> 766 ;
767 [label="gini = 0.0\nsamples = 1\nvalue = [1, 0]\nclass = y[0]", fillcolor="#e58139"] ;
766 -> 767 ;
768 [label="gini = 0.0\nsamples = 6\nvalue = [0, 6]\nclass = y[1]", fillcolor="#399de5"] ;
766 -> 768 ;
769 [label="oldbalanceOrg <= 23599.425\ngini = 0.003\nsamples = 1778\nvalue = [1775, 3]\nclass = y[0]", fillcolor="#e58139"] ;
751 -> 769 ;
770 [label="gini = 0.0\nsamples = 1591\nvalue = [1591, 0]\nclass = y[0]", fillcolor="#e58139"] ;
769 -> 770 ;
771 [label="oldbalanceOrg <= 23619.939\ngini = 0.032\nsamples = 187\nvalue = [184, 3]\nclass = y[0]", fillcolor="#e5833c"] ;
769 -> 771 ;
772 [label="gini = 0.0\nsamples = 1\nvalue = [0, 1]\nclass = y[1]", fillcolor="#399de5"] ;
771 -> 772 ;
773 [label="amount <= 24455.425\ngini = 0.021\nsamples = 186\nvalue = [184, 2]\nclass = y[0]", fillcolor="#e5823b"] ;
771 -> 773 ;
774 [label="step <= 144.5\ngini = 0.375\nsamples = 4\nvalue = [3, 1]\nclass = y[0]", fillcolor="#eeab7b"] ;
773 -> 774 ;
775 [label="gini = 0.0\nsamples = 1\nvalue = [0, 1]\nclass = y[1]", fillcolor="#399de5"] ;
774 -> 775 ;
776 [label="gini = 0.0\nsamples = 3\nvalue = [3, 0]\nclass = y[0]", fillcolor="#e58139"] ;
774 -> 776 ;
777 [label="amount <= 25879.46\ngini = 0.011\nsamples = 182\nvalue = [181, 1]\nclass = y[0]", fillcolor="#e5823a"] ;
773 -> 777 ;
778 [label="oldbalanceOrg <= 25400.795\ngini = 0.069\nsamples = 28\nvalue = [27, 1]\nclass = y[0]", fillcolor="#e68640"] ;
777 -> 778 ;
779 [label="gini = 0.0\nsamples = 27\nvalue = [27, 0]\nclass = y[0]", fillcolor="#e58139"] ;
778 -> 779 ;
780 [label="gini = 0.0\nsamples = 1\nvalue = [0, 1]\nclass = y[1]", fillcolor="#399de5"] ;
778 -> 780 ;
781 [label="gini = 0.0\nsamples = 154\nvalue = [154, 0]\nclass = y[0]", fillcolor="#e58139"] ;
777 -> 781 ;
782 [label="amount <= 27759.971\ngini = 0.126\nsamples = 104\nvalue = [97, 7]\nclass = y[0]", fillcolor="#e78a47"] ;
660 -> 782 ;
783 [label="oldbalanceOrg <= 27635.67\ngini = 0.494\nsamples = 9\nvalue = [5, 4]\nclass = y[0]", fillcolor="#fae6d7"] ;
782 -> 783 ;
784 [label="oldbalanceDest <= 756236.0\ngini = 0.408\nsamples = 7\nvalue = [5, 2]\nclass = y[0]", fillcolor="#efb388"] ;
783 -> 784 ;
785 [label="amount <= 27235.58\ngini = 0.444\nsamples = 3\nvalue = [1, 2]\nclass = y[1]", fillcolor="#9ccef2"] ;
784 -> 785 ;
786 [label="gini = 0.0\nsamples = 2\nvalue = [0, 2]\nclass = y[1]", fillcolor="#399de5"] ;
785 -> 786 ;
787 [label="gini = 0.0\nsamples = 1\nvalue = [1, 0]\nclass = y[0]", fillcolor="#e58139"] ;
785 -> 787 ;
788 [label="gini = 0.0\nsamples = 4\nvalue = [4, 0]\nclass = y[0]", fillcolor="#e58139"] ;
784 -> 788 ;
789 [label="gini = 0.0\nsamples = 2\nvalue = [0, 2]\nclass = y[1]", fillcolor="#399de5"] ;
783 -> 789 ;
790 [label="oldbalanceDest <= 26972.77\ngini = 0.061\nsamples = 95\nvalue = [92, 3]\nclass = y[0]", fillcolor="#e6853f"] ;
782 -> 790 ;
791 [label="gini = 0.0\nsamples = 1\nvalue = [0, 1]\nclass = y[1]", fillcolor="#399de5"] ;
790 -> 791 ;
792 [label="nameDest <= 26357.5\ngini = 0.042\nsamples = 94\nvalue = [92, 2]\nclass = y[0]", fillcolor="#e6843d"] ;
790 -> 792 ;
793 [label="newbalanceDest <= 617380.75\ngini = 0.444\nsamples = 6\nvalue = [4, 2]\nclass = y[0]", fillcolor="#f2c09c"] ;
792 -> 793 ;
794 [label="gini = 0.0\nsamples = 2\nvalue = [0, 2]\nclass = y[1]", fillcolor="#399de5"] ;
793 -> 794 ;
795 [label="gini = 0.0\nsamples = 4\nvalue = [4, 0]\nclass = y[0]", fillcolor="#e58139"] ;
793 -> 795 ;
796 [label="gini = 0.0\nsamples = 88\nvalue = [88, 0]\nclass = y[0]", fillcolor="#e58139"] ;
792 -> 796 ;
797 [label="gini = 0.0\nsamples = 10523\nvalue = [10523, 0]\nclass = y[0]", fillcolor="#e58139"] ;
641 -> 797 ;
798 [label="gini = 0.0\nsamples = 1\nvalue = [0, 1]\nclass = y[1]", fillcolor="#399de5"] ;
640 -> 798 ;
799 [label="nameOrig <= 32770.0\ngini = 0.0\nsamples = 61101\nvalue = [61100, 1]\nclass = y[0]", fillcolor="#e58139"] ;
639 -> 799 ;
800 [label="nameOrig <= 32714.0\ngini = 0.003\nsamples = 707\nvalue = [706, 1]\nclass = y[0]", fillcolor="#e58139"] ;
799 -> 800 ;
801 [label="gini = 0.0\nsamples = 706\nvalue = [706, 0]\nclass = y[0]", fillcolor="#e58139"] ;
800 -> 801 ;
802 [label="gini = 0.0\nsamples = 1\nvalue = [0, 1]\nclass = y[1]", fillcolor="#399de5"] ;
800 -> 802 ;
803 [label="gini = 0.0\nsamples = 60394\nvalue = [60394, 0]\nclass = y[0]", fillcolor="#e58139"] ;
799 -> 803 ;
804 [label="oldbalanceOrg <= 30820.585\ngini = 0.005\nsamples = 57661\nvalue = [57526, 135]\nclass = y[0]", fillcolor="#e58139"] ;
602 -> 804 ;
805 [label="gini = 0.0\nsamples = 1\nvalue = [0, 1]\nclass = y[1]", fillcolor="#399de5"] ;
804 -> 805 ;
806 [label="newbalanceOrig <= 2.49\ngini = 0.005\nsamples = 57660\nvalue = [57526, 134]\nclass = y[0]", fillcolor="#e58139"] ;
804 -> 806 ;
807 [label="oldbalanceOrg <= 98611.344\ngini = 0.011\nsamples = 24453\nvalue = [24319, 134]\nclass = y[0]", fillcolor="#e5823a"] ;
806 -> 807 ;
808 [label="amount <= 31095.905\ngini = 0.01\nsamples = 24443\nvalue = [24316, 127]\nclass = y[0]", fillcolor="#e5823a"] ;
807 -> 808 ;
809 [label="gini = 0.0\nsamples = 2\nvalue = [0, 2]\nclass = y[1]", fillcolor="#399de5"] ;
808 -> 809 ;
810 [label="oldbalanceOrg <= 86163.969\ngini = 0.01\nsamples = 24441\nvalue = [24316, 125]\nclass = y[0]", fillcolor="#e5823a"] ;
808 -> 810 ;
811 [label="amount <= 32854.34\ngini = 0.008\nsamples = 24097\nvalue = [23996, 101]\nclass = y[0]", fillcolor="#e5823a"] ;
810 -> 811 ;
812 [label="oldbalanceOrg <= 32431.5\ngini = 0.165\nsamples = 77\nvalue = [70, 7]\nclass = y[0]", fillcolor="#e88e4d"] ;
811 -> 812 ;
813 [label="amount <= 31603.444\ngini = 0.102\nsamples = 74\nvalue = [70, 4]\nclass = y[0]", fillcolor="#e68844"] ;
812 -> 813 ;
814 [label="amount <= 31550.51\ngini = 0.32\nsamples = 15\nvalue = [12, 3]\nclass = y[0]", fillcolor="#eca06a"] ;
813 -> 814 ;
815 [label="oldbalanceDest <= 105465.852\ngini = 0.142\nsamples = 13\nvalue = [12, 1]\nclass = y[0]", fillcolor="#e78c49"] ;
814 -> 815 ;
816 [label="gini = 0.0\nsamples = 1\nvalue = [0, 1]\nclass = y[1]", fillcolor="#399de5"] ;
815 -> 816 ;
817 [label="gini = 0.0\nsamples = 12\nvalue = [12, 0]\nclass = y[0]", fillcolor="#e58139"] ;
815 -> 817 ;
818 [label="gini = 0.0\nsamples = 2\nvalue = [0, 2]\nclass = y[1]", fillcolor="#399de5"] ;
814 -> 818 ;
819 [label="oldbalanceOrg <= 31926.62\ngini = 0.033\nsamples = 59\nvalue = [58, 1]\nclass = y[0]", fillcolor="#e5833c"] ;
813 -> 819 ;
820 [label="gini = 0.0\nsamples = 53\nvalue = [53, 0]\nclass = y[0]", fillcolor="#e58139"] ;
819 -> 820 ;
821 [label="oldbalanceOrg <= 31952.12\ngini = 0.278\nsamples = 6\nvalue = [5, 1]\nclass = y[0]", fillcolor="#ea9a61"] ;
819 -> 821 ;
822 [label="gini = 0.0\nsamples = 1\nvalue = [0, 1]\nclass = y[1]", fillcolor="#399de5"] ;
821 -> 822 ;
823 [label="gini = 0.0\nsamples = 5\nvalue = [5, 0]\nclass = y[0]", fillcolor="#e58139"] ;
821 -> 823 ;
824 [label="gini = 0.0\nsamples = 3\nvalue = [0, 3]\nclass = y[1]", fillcolor="#399de5"] ;
812 -> 824 ;
825 [label="oldbalanceOrg <= 69877.07\ngini = 0.008\nsamples = 24020\nvalue = [23926, 94]\nclass = y[0]", fillcolor="#e5813a"] ;
811 -> 825 ;
826 [label="amount <= 51433.145\ngini = 0.006\nsamples = 22086\nvalue = [22025, 61]\nclass = y[0]", fillcolor="#e5813a"] ;
825 -> 826 ;
827 [label="oldbalanceOrg <= 44730.25\ngini = 0.028\nsamples = 2725\nvalue = [2687, 38]\nclass = y[0]", fillcolor="#e5833c"] ;
826 -> 827 ;
828 [label="amount <= 40492.49\ngini = 0.015\nsamples = 2503\nvalue = [2484, 19]\nclass = y[0]", fillcolor="#e5823b"] ;
827 -> 828 ;
829 [label="oldbalanceOrg <= 39985.869\ngini = 0.047\nsamples = 667\nvalue = [651, 16]\nclass = y[0]", fillcolor="#e6843e"] ;
828 -> 829 ;
830 [label="oldbalanceOrg <= 37043.461\ngini = 0.036\nsamples = 663\nvalue = [651, 12]\nclass = y[0]", fillcolor="#e5833d"] ;
829 -> 830 ;
831 [label="oldbalanceOrg <= 35475.234\ngini = 0.006\nsamples = 615\nvalue = [613, 2]\nclass = y[0]", fillcolor="#e5813a"] ;
830 -> 831 ;
832 [label="gini = 0.0\nsamples = 557\nvalue = [557, 0]\nclass = y[0]", fillcolor="#e58139"] ;
831 -> 832 ;
833 [label="amount <= 35795.246\ngini = 0.067\nsamples = 58\nvalue = [56, 2]\nclass = y[0]", fillcolor="#e68640"] ;
831 -> 833 ;
834 [label="nameOrig <= 1556303.5\ngini = 0.444\nsamples = 3\nvalue = [1, 2]\nclass = y[1]", fillcolor="#9ccef2"] ;
833 -> 834 ;
835 [label="gini = 0.0\nsamples = 2\nvalue = [0, 2]\nclass = y[1]", fillcolor="#399de5"] ;
834 -> 835 ;
836 [label="gini = 0.0\nsamples = 1\nvalue = [1, 0]\nclass = y[0]", fillcolor="#e58139"] ;
834 -> 836 ;
837 [label="gini = 0.0\nsamples = 55\nvalue = [55, 0]\nclass = y[0]", fillcolor="#e58139"] ;
833 -> 837 ;
838 [label="amount <= 38115.539\ngini = 0.33\nsamples = 48\nvalue = [38, 10]\nclass = y[0]", fillcolor="#eca26d"] ;
830 -> 838 ;
